{"learner":{"attributes":{"scikit_learn":"{\"_estimator_type\": \"classifier\"}"},"feature_names":[],"feature_types":[],"gradient_booster":{"model":{"gbtree_model_param":{"num_parallel_tree":"1","num_trees":"100"},"iteration_indptr":[0,1,2,3,4,5,6,7,8,9,10,11,12,13,14,15,16,17,18,19,20,21,22,23,24,25,26,27,28,29,30,31,32,33,34,35,36,37,38,39,40,41,42,43,44,45,46,47,48,49,50,51,52,53,54,55,56,57,58,59,60,61,62,63,64,65,66,67,68,69,70,71,72,73,74,75,76,77,78,79,80,81,82,83,84,85,86,87,88,89,90,91,92,93,94,95,96,97,98,99,100],"tree_info":[0,0,0,0,0,0,0,0,0,0,0,0,0,0,0,0,0,0,0,0,0,0,0,0,0,0,0,0,0,0,0,0,0,0,0,0,0,0,0,0,0,0,0,0,0,0,0,0,0,0,0,0,0,0,0,0,0,0,0,0,0,0,0,0,0,0,0,0,0,0,0,0,0,0,0,0,0,0,0,0,0,0,0,0,0,0,0,0,0,0,0,0,0,0,0,0,0,0,0,0],"trees":[{"base_weights":[1.1594989E-8,-1.21385574E-1,2.3597951E-1,-2.6984602E-1,1.0237529E0,-3.9946643E-1,1.3382043E-1,1.8091825E0,-6.0783E-2,-5.09561E-2,-6.91415E-1,-1.5012227E-2,2.9637045E-1,-5.02748E-1,6.399022E-1,-7.8142756E-1,3.750258E-2,-7.478786E-1,7.912542E-2,-5.9495468E-2,1.007882E0,-8.2169425E-1,-1.2381135E-2,-2.3771824E-1,-9.141468E-2,1.5703045E-1,1.3608721E-1,-3.585363E-1,-9.1207646E-2,-6.2002815E-2,2.5780609E-2,4.1883156E-2,-1.7501196E-2,-5.9495468E-2,-6.7612017E-3],"categories":[],"categories_nodes":[],"categories_segments":[],"categories_sizes":[],"default_left":[0,0,0,0,0,0,0,0,0,0,0,0,0,0,0,0,0,0,0,0,0,0,0,0,0,0,0,0,0,0,0,0,0,0,0],"id":0,"left_children":[1,3,-1,5,7,9,-1,11,-1,13,15,-1,-1,17,19,21,-1,23,-1,-1,25,27,-1,29,-1,-1,31,33,-1,-1,-1,-1,-1,-1,-1],"loss_changes":[1.2066334E1,7.087376E0,0E0,8.091851E0,7.2591944E0,3.4569936E0,0E0,8.35325E0,0E0,5.5420732E0,2.0782719E0,0E0,0E0,3.9770074E0,3.8045366E0,3.6097908E-1,0E0,5.873823E-1,0E0,0E0,2.6325645E0,3.5484314E-1,0E0,8.576221E-1,0E0,0E0,3.698428E-1,2.560293E-1,0E0,0E0,0E0,0E0,0E0,0E0,0E0],"parents":[2147483647,0,0,1,1,3,3,4,4,5,5,7,7,9,9,10,10,13,13,14,14,15,15,17,17,20,20,21,21,23,23,26,26,27,27],"right_children":[2,4,-1,6,8,10,-1,12,-1,14,16,-1,-1,18,20,22,-1,24,-1,-1,26,28,-1,30,-1,-1,32,34,-1,-1,-1,-1,-1,-1,-1],"split_conditions":[5.894913E0,3.1179028E0,2.3597951E-1,1.9174075E0,-4.8985593E-9,-4.766576E-1,1.3382043E-1,2.2945171E-7,-6.0783E-2,2.87792E-1,3.608346E-1,-1.5012227E-2,2.9637045E-1,-5.477402E-1,-8.0307513E-1,1.5063311E0,3.750258E-2,-9.208192E-1,7.912542E-2,-5.9495468E-2,2.5662178E-1,-2.1507326E-1,-1.2381135E-2,-3.2147753E-1,-9.141468E-2,1.5703045E-1,-1.9869522E-9,-5.6758696E-1,-9.1207646E-2,-6.2002815E-2,2.5780609E-2,4.1883156E-2,-1.7501196E-2,-5.9495468E-2,-6.7612017E-3],"split_indices":[29,11,0,8,8,8,0,2,0,1,6,0,0,8,0,1,0,0,0,0,0,8,0,1,0,0,3,0,0,0,0,0,0,0,0],"split_type":[0,0,0,0,0,0,0,0,0,0,0,0,0,0,0,0,0,0,0,0,0,0,0,0,0,0,0,0,0,0,0,0,0,0,0],"sum_hessian":[4.0124416E1,3.9063583E1,1.0608321E0,3.525707E1,3.8065152E0,3.332261E1,1.9344586E0,2.4960756E0,1.3104397E0,1.5725277E1,1.7597334E1,1.2480378E0,1.2480378E0,9.672293E0,6.0529833E0,1.6474098E1,1.123234E0,8.486657E0,1.1856359E0,1.2480378E0,4.8049455E0,1.5288464E1,1.1856359E0,2.6832814E0,5.8033757E0,2.4336739E0,2.3712718E0,3.3073E0,1.1981163E1,1.3728416E0,1.3104397E0,1.0608321E0,1.3104397E0,1.2480378E0,2.0592623E0],"tree_param":{"num_deleted":"0","num_feature":"30","num_nodes":"35","size_leaf_vector":"1"}},{"base_weights":[8.197891E-3,-1.07605875E-1,1.9967473E-1,-2.497198E-1,9.04992E-1,-3.758311E-1,1.1523311E0,1.5441647E0,-5.9152998E-2,-4.510024E-2,-6.664378E-1,-6.6281273E-3,1.7871165E-1,-1.4286781E-2,2.397218E-1,-4.775533E-1,5.644343E-1,-7.5912786E-1,3.487852E-2,-7.3393315E-1,8.933785E-2,-5.7897616E-2,8.776656E-1,-8.0060035E-1,-1.1781333E-2,-2.5722376E-1,-8.997264E-2,1.3168655E-1,1.2867995E-1,-3.4450957E-1,-8.942337E-2,-6.034396E-2,1.68789E-2,3.894919E-2,-1.6658394E-2,-5.7897616E-2,-6.3323188E-3],"categories":[],"categories_nodes":[],"categories_segments":[],"categories_sizes":[],"default_left":[0,0,0,0,0,0,0,0,0,0,0,0,0,0,0,0,0,0,0,0,0,0,0,0,0,0,0,0,0,0,0,0,0,0,0,0,0],"id":1,"left_children":[1,3,-1,5,7,9,11,13,-1,15,17,-1,-1,-1,-1,19,21,23,-1,25,-1,-1,27,29,-1,31,-1,-1,33,35,-1,-1,-1,-1,-1,-1,-1],"loss_changes":[9.61128E0,5.9112835E0,0E0,6.697419E0,5.771248E0,3.1665702E0,2.5703964E0,5.8624353E0,0E0,4.652682E0,1.9238601E0,0E0,0E0,0E0,0E0,4.264946E0,3.1439664E0,3.4374714E-1,0E0,4.956894E-1,0E0,0E0,1.8616462E0,3.4522057E-1,0E0,6.5853846E-1,0E0,0E0,3.2598794E-1,2.4236923E-1,0E0,0E0,0E0,0E0,0E0,0E0,0E0],"parents":[2147483647,0,0,1,1,3,3,4,4,5,5,6,6,7,7,9,9,10,10,15,15,16,16,17,17,19,19,22,22,23,23,25,25,28,28,29,29],"right_children":[2,4,-1,6,8,10,12,14,-1,16,18,-1,-1,-1,-1,20,22,24,-1,26,-1,-1,28,30,-1,32,-1,-1,34,36,-1,-1,-1,-1,-1,-1,-1],"split_conditions":[5.894913E0,3.1179028E0,1.9967473E-1,1.9174075E0,-4.8985593E-9,-4.766576E-1,1.0808305E0,2.2945171E-7,-5.9152998E-2,2.87792E-1,3.608346E-1,-6.6281273E-3,1.7871165E-1,-1.4286781E-2,2.397218E-1,-5.249938E-1,-8.0307513E-1,1.5063311E0,3.487852E-2,-9.208192E-1,8.933785E-2,-5.7897616E-2,2.5662178E-1,-2.1507326E-1,-1.1781333E-2,-3.2147753E-1,-8.997264E-2,1.3168655E-1,-1.9869522E-9,-5.6758696E-1,-8.942337E-2,-6.034396E-2,1.68789E-2,3.894919E-2,-1.6658394E-2,-5.7897616E-2,-6.3323188E-3],"split_indices":[29,11,0,8,8,8,0,2,0,1,6,0,0,0,0,8,0,1,0,0,0,0,0,8,0,1,0,0,3,0,0,0,0,0,0,0,0],"split_type":[0,0,0,0,0,0,0,0,0,0,0,0,0,0,0,0,0,0,0,0,0,0,0,0,0,0,0,0,0,0,0,0,0,0,0,0,0],"sum_hessian":[3.9804047E1,3.8507442E1,1.2966052E0,3.442888E1,4.0785637E0,3.2259182E1,2.1696982E0,2.8356194E0,1.2429442E0,1.5628286E1,1.6630894E1,1.0498539E0,1.1198442E0,1.2318956E0,1.6037239E0,9.268787E0,6.359499E0,1.5470674E1,1.1602205E0,8.19995E0,1.0688376E0,1.1850884E0,5.174411E0,1.4297697E1,1.1729767E0,2.7743278E0,5.425622E0,2.7838068E0,2.3906038E0,3.2323194E0,1.1065377E1,1.3007447E0,1.4735832E0,1.0999056E0,1.2906983E0,1.1850884E0,2.047231E0],"tree_param":{"num_deleted":"0","num_feature":"30","num_nodes":"37","size_leaf_vector":"1"}},{"base_weights":[1.4609172E-2,-9.527881E-2,1.7036743E-1,-2.3027751E-1,7.977292E-1,-3.5366946E-1,1.0297344E0,1.3255936E0,-5.757149E-2,-4.0596385E-2,-6.4173603E-1,-1.3930221E-2,1.7547053E-1,-1.3595684E-2,1.9757058E-1,-4.530548E-1,4.9860162E-1,-7.368892E-1,3.2446727E-2,-7.129338E-1,8.1231505E-2,-5.63486E-2,7.6864034E-1,-8.662771E-2,-3.8896978E-1,-2.4657756E-1,-8.836064E-2,1.1187025E-1,1.2145202E-1,-6.8687014E-2,-9.606003E-2,-5.8733117E-2,1.5728824E-2,3.6229387E-2,-1.5854994E-2,2.4547692E-1,-5.5584192E-2,-3.5381261E-3,3.9711434E-2],"categories":[],"categories_nodes":[],"categories_segments":[],"categories_sizes":[],"default_left":[0,0,0,0,0,0,0,0,0,0,0,0,0,0,0,0,0,0,0,0,0,0,0,0,0,0,0,0,0,0,0,0,0,0,0,0,0,0,0],"id":2,"left_children":[1,3,-1,5,7,9,11,13,-1,15,17,-1,-1,-1,-1,19,21,23,-1,25,-1,-1,27,-1,29,31,-1,-1,33,-1,35,-1,-1,-1,-1,37,-1,-1,-1],"loss_changes":[7.6783276E0,4.8814178E0,0E0,5.747708E0,4.635525E0,2.8853374E0,3.0786335E0,4.2224097E0,0E0,3.9036994E0,1.7785845E0,0E0,0E0,0E0,0E0,3.8325975E0,2.6252952E0,3.6302662E-1,0E0,4.7781897E-1,0E0,0E0,1.3406026E0,0E0,4.6018875E-1,6.05538E-1,0E0,0E0,2.873613E-1,0E0,7.96467E-1,0E0,0E0,0E0,0E0,1.4630127E-1,0E0,0E0,0E0],"parents":[2147483647,0,0,1,1,3,3,4,4,5,5,6,6,7,7,9,9,10,10,15,15,16,16,17,17,19,19,22,22,24,24,25,25,28,28,30,30,35,35],"right_children":[2,4,-1,6,8,10,12,14,-1,16,18,-1,-1,-1,-1,20,22,24,-1,26,-1,-1,28,-1,30,32,-1,-1,34,-1,36,-1,-1,-1,-1,38,-1,-1,-1],"split_conditions":[5.894913E0,3.1179028E0,1.7036743E-1,1.9174075E0,-4.8985593E-9,-4.766576E-1,1.1985745E0,2.2945171E-7,-5.757149E-2,2.87792E-1,3.608346E-1,-1.3930221E-2,1.7547053E-1,-1.3595684E-2,1.9757058E-1,-5.249938E-1,-8.0307513E-1,5.180079E-1,3.2446727E-2,-9.208192E-1,8.1231505E-2,-5.63486E-2,2.5662178E-1,-8.662771E-2,1.3887766E-1,-3.2147753E-1,-8.836064E-2,1.1187025E-1,-1.9869522E-9,-6.8687014E-2,3.6007467E-1,-5.8733117E-2,1.5728824E-2,3.6229387E-2,-1.5854994E-2,-3.5670555E-1,-5.5584192E-2,-3.5381261E-3,3.9711434E-2],"split_indices":[29,11,0,8,8,8,0,2,0,1,6,0,0,0,0,8,0,3,0,0,0,0,0,0,0,1,0,0,3,0,2,0,0,0,0,2,0,0,0],"split_type":[0,0,0,0,0,0,0,0,0,0,0,0,0,0,0,0,0,0,0,0,0,0,0,0,0,0,0,0,0,0,0,0,0,0,0,0,0,0,0],"sum_hessian":[3.9493973E1,3.796746E1,1.5265137E0,3.3626217E1,4.3412437E0,3.1282099E1,2.344118E0,3.1611416E0,1.1801019E0,1.5537138E1,1.5744961E1,1.2064822E0,1.137636E0,1.2166963E0,1.9444455E0,8.89369E0,6.643448E0,1.4549444E1,1.1955166E0,7.7405357E0,1.1531541E0,1.1264254E0,5.5170226E0,9.519395E0,5.0300493E0,2.728837E0,5.0116987E0,3.1075826E0,2.4094398E0,1.8269662E0,3.203083E0,1.2336754E0,1.4951618E0,1.1373005E0,1.2721393E0,2.10531E0,1.0977732E0,1.0069464E0,1.0983634E0],"tree_param":{"num_deleted":"0","num_feature":"30","num_nodes":"39","size_leaf_vector":"1"}},{"base_weights":[1.8142557E-2,-8.562241E-2,1.4667654E-1,-2.1305443E-1,7.035522E-1,-3.3337787E-1,9.265728E-1,1.1467892E0,-5.603751E-2,-3.7640158E-2,-6.17626E-1,-1.3257995E-2,1.5305042E-1,-1.2937414E-2,1.6571362E0,-4.298599E-1,4.4117063E-1,-7.149179E-1,3.0192826E-2,2.8908965E-1,-1.9108638E-2,-6.922408E-1,7.394094E-2,-5.484735E-2,6.766825E-1,-7.598552E-1,-8.460964E-3,-2.3666103E-1,-8.675544E-2,8.575225E-1,-1.1644838E-2,-2.917487E-1,-8.62993E-2,-5.7169415E-2,1.4660402E-2,1.1560005E-1,-1.35114E-2,-4.5137695E-4,-5.5154096E-2],"categories":[],"categories_nodes":[],"categories_segments":[],"categories_sizes":[],"default_left":[0,0,0,0,0,0,0,0,0,0,0,0,0,0,0,0,0,0,0,0,0,0,0,0,0,0,0,0,0,0,0,0,0,0,0,0,0,0,0],"id":3,"left_children":[1,3,-1,5,7,9,11,13,-1,15,17,-1,-1,-1,19,21,23,25,-1,-1,-1,27,-1,-1,29,31,-1,33,-1,35,-1,37,-1,-1,-1,-1,-1,-1,-1],"loss_changes":[6.1741276E0,4.021082E0,0E0,4.958749E0,3.770949E0,2.6169093E0,2.4435875E0,3.1207695E0,0E0,3.2803016E0,1.6427917E0,0E0,0E0,0E0,7.9864025E0,3.442699E0,2.213378E0,3.5265827E-1,0E0,0E0,0E0,4.591012E-1,0E0,0E0,1.0798247E0,4.0557528E-1,0E0,5.572169E-1,0E0,1.8400569E0,0E0,2.9368332E-1,0E0,0E0,0E0,0E0,0E0,0E0,0E0],"parents":[2147483647,0,0,1,1,3,3,4,4,5,5,6,6,7,7,9,9,10,10,14,14,15,15,16,16,17,17,21,21,24,24,25,25,27,27,29,29,31,31],"right_children":[2,4,-1,6,8,10,12,14,-1,16,18,-1,-1,-1,20,22,24,26,-1,-1,-1,28,-1,-1,30,32,-1,34,-1,36,-1,38,-1,-1,-1,-1,-1,-1,-1],"split_conditions":[5.894913E0,3.1179028E0,1.4667654E-1,1.9174075E0,-4.8985593E-9,-4.766576E-1,1.1985745E0,2.2945171E-7,-5.603751E-2,2.87792E-1,3.608346E-1,-1.3257995E-2,1.5305042E-1,-1.2937414E-2,2.5662178E-1,-5.249938E-1,-8.0307513E-1,1.5063311E0,3.0192826E-2,2.8908965E-1,-1.9108638E-2,-9.208192E-1,7.394094E-2,-5.484735E-2,2.4413574E0,-2.1507326E-1,-8.460964E-3,-3.2147753E-1,-8.675544E-2,8.453423E-1,-1.1644838E-2,3.6007467E-1,-8.62993E-2,-5.7169415E-2,1.4660402E-2,1.1560005E-1,-1.35114E-2,-4.5137695E-4,-5.5154096E-2],"split_indices":[29,11,0,8,8,8,0,2,0,1,6,0,0,0,0,8,0,1,0,0,0,0,0,0,4,8,0,1,0,0,0,2,0,0,0,0,0,0,0],"split_type":[0,0,0,0,0,0,0,0,0,0,0,0,0,0,0,0,0,0,0,0,0,0,0,0,0,0,0,0,0,0,0,0,0,0,0,0,0,0,0],"sum_hessian":[3.923875E1,3.749395E1,1.7448006E0,3.2909855E1,4.5840926E0,3.040692E1,2.5029373E0,3.4625244E0,1.1215684E0,1.5457272E1,1.4949647E1,1.1923354E0,1.310602E0,1.2023785E0,2.260146E0,8.553155E0,6.904116E0,1.37205105E1,1.2291371E0,1.0170656E0,1.2430803E0,7.318806E0,1.234349E0,1.0717325E0,5.8323836E0,1.2615564E1,1.1049457E0,2.6867626E0,4.632044E0,4.683356E0,1.1490282E0,2.9690058E0,9.646559E0,1.1712589E0,1.5155036E0,3.474135E0,1.2092206E0,1.8931981E0,1.0758077E0],"tree_param":{"num_deleted":"0","num_feature":"30","num_nodes":"39","size_leaf_vector":"1"}},{"base_weights":[2.1745056E-2,-7.597273E-2,1.2737149E-1,-1.9805993E-1,6.463014E-1,-3.1481388E-1,8.3405834E-1,1.0361282E0,-5.4550182E-2,-3.7664704E-2,-5.932875E-1,-1.2617754E-2,1.3422789E-1,-1.2310494E-2,1.468453E0,-2.2660807E-1,8.210247E-2,-6.9253653E-1,2.8103355E-2,2.4496177E-1,-1.8199204E-2,-6.618445E-1,2.530757E-1,-8.331832E-2,-3.3696523E-1,-1.9356722E-1,-8.494177E-2,-5.3392883E-2,4.5962077E-1,-6.534992E-2,-4.5292508E-2,-5.5652063E-2,2.0739863E-2,-8.393583E-2,7.2822285E-1,3.6392063E-2,-3.380637E-2,-5.5229943E-2,4.171806E-2,-2.7185863E-2,1.358561E-1],"categories":[],"categories_nodes":[],"categories_segments":[],"categories_sizes":[],"default_left":[0,0,0,0,0,0,0,0,0,0,0,0,0,0,0,0,0,0,0,0,0,0,0,0,0,0,0,0,0,0,0,0,0,0,0,0,0,0,0,0,0],"id":4,"left_children":[1,3,-1,5,7,9,11,13,-1,15,17,-1,-1,-1,19,21,-1,23,-1,-1,-1,25,27,-1,29,31,-1,-1,33,-1,35,-1,-1,37,39,-1,-1,-1,-1,-1,-1],"loss_changes":[4.9836054E0,3.4785557E0,0E0,4.271494E0,3.226666E0,2.3403358E0,1.952986E0,2.5169601E0,0E0,2.8486042E0,1.5138111E0,0E0,0E0,0E0,6.069231E0,3.1393774E0,0E0,4.1644335E-1,0E0,0E0,0E0,5.154128E-1,1.4637343E0,0E0,4.902349E-1,6.260514E-1,0E0,0E0,1.0063753E0,0E0,6.028272E-1,0E0,0E0,9.434116E-1,3.1660168E0,0E0,0E0,0E0,0E0,0E0,0E0],"parents":[2147483647,0,0,1,1,3,3,4,4,5,5,6,6,7,7,9,9,10,10,14,14,15,15,17,17,21,21,22,22,24,24,25,25,28,28,30,30,33,33,34,34],"right_children":[2,4,-1,6,8,10,12,14,-1,16,18,-1,-1,-1,20,22,-1,24,-1,-1,-1,26,28,-1,30,32,-1,-1,34,-1,36,-1,-1,38,40,-1,-1,-1,-1,-1,-1],"split_conditions":[5.894913E0,3.1179028E0,1.2737149E-1,1.9174075E0,-4.8985593E-9,-4.766576E-1,1.1985745E0,2.2945171E-7,-5.4550182E-2,-5.477402E-1,3.608346E-1,-1.2617754E-2,1.3422789E-1,-1.2310494E-2,2.5662178E-1,2.87792E-1,8.210247E-2,5.180079E-1,2.8103355E-2,2.4496177E-1,-1.8199204E-2,-9.208192E-1,-8.0307513E-1,-8.331832E-2,1.3887766E-1,-3.2147753E-1,-8.494177E-2,-5.3392883E-2,-1.9703914E-1,-6.534992E-2,-4.334133E-8,-5.5652063E-2,2.0739863E-2,8.9706147E-1,1.684558E-3,3.6392063E-2,-3.380637E-2,-5.5229943E-2,4.171806E-2,-2.7185863E-2,1.358561E-1],"split_indices":[29,11,0,8,8,8,0,2,0,8,6,0,0,0,0,1,0,3,0,0,0,0,0,0,0,1,0,0,3,0,1,0,0,1,2,0,0,0,0,0,0],"split_type":[0,0,0,0,0,0,0,0,0,0,0,0,0,0,0,0,0,0,0,0,0,0,0,0,0,0,0,0,0,0,0,0,0,0,0,0,0,0,0,0,0],"sum_hessian":[3.894482E1,3.6996517E1,1.9483062E0,3.2267986E1,4.7285285E0,2.9613113E1,2.6548734E0,3.661508E0,1.0670208E0,1.5410833E1,1.420228E1,1.1789958E0,1.4758775E0,1.1888859E0,2.472622E0,1.3234791E1,2.1760426E0,1.2941173E1,1.2611082E0,1.2470521E0,1.22557E0,6.739772E0,6.4950185E0,8.310657E0,4.630516E0,2.5087132E0,4.231059E0,1.0207145E0,5.474304E0,1.6257119E0,3.0048041E0,1.1131457E0,1.3955675E0,2.0378723E0,3.436432E0,1.1518358E0,1.8529683E0,1.0005654E0,1.0373068E0,1.5484318E0,1.8880001E0],"tree_param":{"num_deleted":"0","num_feature":"30","num_nodes":"41","size_leaf_vector":"1"}},{"base_weights":[2.4136264E-2,-6.764387E-2,1.1146953E-1,-1.8377987E-1,5.9158236E-1,-4.6222788E-1,2.2978361E-1,9.3694425E-1,-5.310865E-2,-7.2253335E-1,-5.2089997E-2,-4.5033235E-2,1.22399464E-1,-1.3243499E-2,1.3047746E0,-7.79352E-1,-9.062302E-3,2.8043246E-1,-7.294869E-2,3.9500907E-1,-5.4677E-1,1.9160683E-1,1.6214365E-2,-8.45652E-2,-1.6430585E-2,-5.4509897E-2,5.3819305E-1,-2.6943773E-1,9.379256E-1,-1.9228116E-1,-7.507301E-2,1.3245942E-1,-8.2952745E-2,3.628999E-2,-6.6724986E-2,2.6836012E-2,1.1497917E-1,-5.675728E-2,2.268224E-2,-6.3003846E-2,4.3396834E-2],"categories":[],"categories_nodes":[],"categories_segments":[],"categories_sizes":[],"default_left":[0,0,0,0,0,0,0,0,0,0,0,0,0,0,0,0,0,0,0,0,0,0,0,0,0,0,0,0,0,0,0,0,0,0,0,0,0,0,0,0,0],"id":5,"left_children":[1,3,-1,5,7,9,11,13,-1,15,17,19,-1,-1,21,23,-1,25,-1,27,29,-1,-1,-1,-1,-1,31,33,35,37,-1,-1,39,-1,-1,-1,-1,-1,-1,-1,-1],"loss_changes":[4.0447907E0,2.981391E0,0E0,3.8677468E0,2.7685769E0,2.081924E0,3.8287551E0,2.0770059E0,0E0,3.6264515E-1,2.1835954E0,2.8179271E0,0E0,0E0,2.2696376E0,3.0717134E-1,0E0,1.7010591E0,0E0,2.7270436E0,2.841009E-1,0E0,0E0,0E0,0E0,0E0,2.8182077E0,1.2134259E0,2.5857687E-1,6.8059313E-1,0E0,0E0,1.4155917E0,0E0,0E0,0E0,0E0,0E0,0E0,0E0,0E0],"parents":[2147483647,0,0,1,1,3,3,4,4,5,5,6,6,7,7,9,9,10,10,11,11,14,14,15,15,17,17,19,19,20,20,26,26,27,27,28,28,29,29,32,32],"right_children":[2,4,-1,6,8,10,12,14,-1,16,18,20,-1,-1,22,24,-1,26,-1,28,30,-1,-1,-1,-1,-1,32,34,36,38,-1,-1,40,-1,-1,-1,-1,-1,-1,-1,-1],"split_conditions":[5.894913E0,3.1179028E0,1.1146953E-1,-1.9869522E-9,-4.8985593E-9,2.87792E-1,1.9174075E0,-5.6758696E-1,-5.310865E-2,1.0644152E0,-2.1507326E-1,4.9210995E-1,1.22399464E-1,-1.3243499E-2,2.87792E-1,1.076855E0,-9.062302E-3,-8.0307513E-1,-7.294869E-2,-9.6610546E-2,-2.1507326E-1,1.9160683E-1,1.6214365E-2,-8.45652E-2,-1.6430585E-2,-5.4509897E-2,-4.4984284E-1,-4.766576E-1,1.3887766E-1,2.2945171E-7,-7.507301E-2,1.3245942E-1,-1.9703914E-1,3.628999E-2,-6.6724986E-2,2.6836012E-2,1.1497917E-1,-5.675728E-2,2.268224E-2,-6.3003846E-2,4.3396834E-2],"split_indices":[29,11,0,3,8,1,8,0,0,8,8,0,0,0,1,2,0,0,0,0,8,0,0,0,0,0,0,8,0,2,0,0,3,0,0,0,0,0,0,0,0],"split_type":[0,0,0,0,0,0,0,0,0,0,0,0,0,0,0,0,0,0,0,0,0,0,0,0,0,0,0,0,0,0,0,0,0,0,0,0,0,0,0,0,0],"sum_hessian":[3.8657528E1,3.6521866E1,2.135663E0,3.166471E1,4.8571577E0,1.8853304E1,1.2811406E1,3.840999E0,1.0161587E0,1.1067391E1,7.7859125E0,1.0784963E1,2.0264428E0,1.1468277E0,2.6941712E0,9.940276E0,1.1271145E0,5.615416E0,2.1704965E0,5.85906E0,4.925903E0,1.3141992E0,1.379972E0,8.63456E0,1.3057173E0,1.0708973E0,4.5445185E0,2.8611596E0,2.9979005E0,2.508607E0,2.417296E0,1.5057119E0,3.0388067E0,1.1387823E0,1.7223773E0,1.2654184E0,1.732482E0,1.1365839E0,1.3720229E0,1.3700156E0,1.6687909E0],"tree_param":{"num_deleted":"0","num_feature":"30","num_nodes":"41","size_leaf_vector":"1"}},{"base_weights":[2.5480578E-2,-4.3018103E-2,1.2281223E-1,-3.270821E-1,1.8611033E-1,-5.436288E-1,3.0580354E-1,3.8669226E-1,-5.114565E-1,-6.4534384E-1,1.9253625E-2,7.9918824E-2,-4.3788865E-2,5.7784855E-1,-7.22838E-2,-8.015529E-2,1.1876491E-2,-6.26268E-3,-6.95776E-1,-3.1018212E-2,3.0089905E-2,1.5255865E-1,1.0862821E0,-3.5878488E-1,-7.9798007E-1,7.783671E-1,-6.441176E-1,1.3609097E0,-1.3830977E-2,-9.555417E-2,-5.7665706E-2,-8.900667E-2,-2.7740085E-2,2.1119753E-1,1.2496195E-1,-2.0865194E-2,-7.629512E-2,1.7927809E-1,3.174805E-2,-5.339436E-2,3.610892E-2,-1.7800158E-2,4.6812583E-2],"categories":[],"categories_nodes":[],"categories_segments":[],"categories_sizes":[],"default_left":[0,0,0,0,0,0,0,0,0,0,0,0,0,0,0,0,0,0,0,0,0,0,0,0,0,0,0,0,0,0,0,0,0,0,0,0,0,0,0,0,0,0,0],"id":6,"left_children":[1,3,-1,5,7,9,11,13,15,17,-1,-1,19,21,-1,-1,-1,-1,23,-1,-1,25,27,29,31,33,35,37,-1,39,-1,-1,-1,41,-1,-1,-1,-1,-1,-1,-1,-1,-1],"loss_changes":[3.300891E0,2.5517287E0,0E0,2.557632E0,3.2508764E0,1.1246955E0,9.126456E-1,4.132888E0,1.0648379E0,3.081565E-1,0E0,0E0,4.5384574E-1,3.1854682E0,0E0,0E0,0E0,0E0,8.967781E-2,0E0,0E0,5.2888365E0,2.507285E0,1.9478881E-1,1.1546755E-1,1.2945325E0,8.773458E-2,2.010563E0,0E0,8.277633E-1,0E0,0E0,0E0,4.6826074E-1,0E0,0E0,0E0,0E0,0E0,0E0,0E0,0E0,0E0],"parents":[2147483647,0,0,1,1,3,3,4,4,5,5,6,6,7,7,8,8,9,9,12,12,13,13,18,18,21,21,22,22,23,23,24,24,25,25,26,26,27,27,29,29,33,33],"right_children":[2,4,-1,6,8,10,12,14,16,18,-1,-1,20,22,-1,-1,-1,-1,24,-1,-1,26,28,30,32,34,36,38,-1,40,-1,-1,-1,42,-1,-1,-1,-1,-1,-1,-1,-1,-1],"split_conditions":[6.821087E0,1.684558E-3,1.2281223E-1,8.9706147E-1,1.076855E0,1.0644152E0,1.6112086E-8,4.369146E-9,2.1520252E0,-1.0734857E0,1.9253625E-2,7.9918824E-2,-3.5670555E-1,-1.9869522E-9,-7.22838E-2,-8.015529E-2,1.1876491E-2,-6.26268E-3,-1.9703914E-1,-3.1018212E-2,3.0089905E-2,-4.99404E-1,8.9706147E-1,-3.5670555E-1,-8.20396E-3,-1.9703914E-1,-3.3209875E-1,1.2330549E0,-1.3830977E-2,-1.1563075E0,-5.7665706E-2,-8.900667E-2,-2.7740085E-2,-6.8533105E-1,1.2496195E-1,-2.0865194E-2,-7.629512E-2,1.7927809E-1,3.174805E-2,-5.339436E-2,3.610892E-2,-1.7800158E-2,4.6812583E-2],"split_indices":[22,2,0,1,2,8,7,17,2,2,0,0,2,3,0,0,0,0,3,0,0,8,1,2,10,3,0,3,0,0,0,0,0,0,0,0,0,0,0,0,0,0,0],"split_type":[0,0,0,0,0,0,0,0,0,0,0,0,0,0,0,0,0,0,0,0,0,0,0,0,0,0,0,0,0,0,0,0,0,0,0,0,0,0,0,0,0,0,0],"sum_hessian":[3.842807E1,3.7269547E1,1.1585255E0,1.644911E1,2.0820435E1,1.2360798E1,4.0883117E0,1.6516773E1,4.3036613E0,1.0968645E1,1.3921535E0,1.1621275E0,2.9261842E0,1.4498144E1,2.018629E0,2.7609246E0,1.5427366E0,1.0522498E0,9.916395E0,1.7070173E0,1.2191669E0,8.602479E0,5.8956656E0,3.3572433E0,6.5591516E0,4.8307724E0,3.7717063E0,4.72477E0,1.1708959E0,2.1718354E0,1.185408E0,4.9701986E0,1.5889531E0,2.8494802E0,1.9812922E0,1.399408E0,2.3722985E0,2.833736E0,1.891034E0,1.0216988E0,1.1501366E0,1.2552304E0,1.5942497E0],"tree_param":{"num_deleted":"0","num_feature":"30","num_nodes":"43","size_leaf_vector":"1"}},{"base_weights":[2.3817454E-2,-6.0069114E-2,9.406237E-1,-1.6813445E-1,5.2255446E-1,1.11865655E-1,3.0834226E-2,-4.3136376E-1,1.9632797E-1,9.4895864E-1,-1.528194E-1,-6.891961E-1,-5.4375816E-2,-4.4114754E-2,9.8394686E-1,-8.029292E-3,1.3595928E-1,4.1272752E-2,-6.00467E-2,-7.490543E-1,-7.054119E-3,2.3601398E-1,-7.012698E-2,3.5766286E-1,-5.2812797E-1,1.2122812E-1,2.9838655E-2,-8.201981E-1,-1.3128887E-2,-5.2866466E-2,4.613995E-1,-2.5238523E-1,8.1791806E-1,-1.8408017E-1,-7.330571E-2,-3.440116E-2,-9.00063E-2,1.1210338E-1,-9.3008555E-2,4.5086365E-2,-6.738582E-2,2.280914E-2,1.0091766E-1,-5.4214817E-2,1.9259593E-2,-6.110976E-2,3.6833163E-2],"categories":[],"categories_nodes":[],"categories_segments":[],"categories_sizes":[],"default_left":[0,0,0,0,0,0,0,0,0,0,0,0,0,0,0,0,0,0,0,0,0,0,0,0,0,0,0,0,0,0,0,0,0,0,0,0,0,0,0,0,0,0,0,0,0,0,0],"id":7,"left_children":[1,3,5,7,9,-1,-1,11,13,15,17,19,21,23,25,-1,-1,-1,-1,27,-1,29,-1,31,33,-1,-1,35,-1,-1,37,39,41,43,-1,-1,-1,-1,45,-1,-1,-1,-1,-1,-1,-1,-1],"loss_changes":[3.0854077E0,2.4188251E0,3.346467E-2,3.1533566E0,1.8832574E0,0E0,0E0,1.798162E0,2.7138124E0,1.7315481E0,1.0572727E0,3.5929775E-1,1.8103162E0,2.4758356E0,1.6123748E-1,0E0,0E0,0E0,0E0,3.3373308E-1,0E0,1.4143944E0,0E0,2.1781056E0,2.696153E-1,0E0,0E0,2.5636196E-2,0E0,0E0,2.2177835E0,1.4253669E0,2.4793458E-1,5.734119E-1,0E0,0E0,0E0,0E0,1.196321E0,0E0,0E0,0E0,0E0,0E0,0E0,0E0,0E0],"parents":[2147483647,0,0,1,1,2,2,3,3,4,4,7,7,8,8,9,9,10,10,11,11,12,12,13,13,14,14,19,19,21,21,23,23,24,24,27,27,30,30,31,31,32,32,33,33,38,38],"right_children":[2,4,6,8,10,-1,-1,12,14,16,18,20,22,24,26,-1,-1,-1,-1,28,-1,30,-1,32,34,-1,-1,36,-1,-1,38,40,42,44,-1,-1,-1,-1,46,-1,-1,-1,-1,-1,-1,-1,-1],"split_conditions":[5.894913E0,3.1179028E0,-4.334133E-8,-1.9869522E-9,2.87792E-1,1.11865655E-1,3.0834226E-2,2.87792E-1,1.9174075E0,-3.3209875E-1,1.3887766E-1,1.0644152E0,-2.1507326E-1,4.9210995E-1,3.623392E0,-8.029292E-3,1.3595928E-1,4.1272752E-2,-6.00467E-2,1.076855E0,-7.054119E-3,-8.0307513E-1,-7.012698E-2,-9.6610546E-2,-2.1507326E-1,1.2122812E-1,2.9838655E-2,-1.0385634E0,-1.3128887E-2,-5.2866466E-2,-4.4984284E-1,-4.99404E-1,1.3887766E-1,2.2945171E-7,-7.330571E-2,-3.440116E-2,-9.00063E-2,1.1210338E-1,-1.9703914E-1,4.5086365E-2,-6.738582E-2,2.280914E-2,1.0091766E-1,-5.4214817E-2,1.9259593E-2,-6.110976E-2,3.6833163E-2],"split_indices":[29,11,1,3,1,0,0,1,8,0,0,8,8,0,8,0,0,0,0,2,0,0,0,0,8,0,0,0,0,0,0,8,0,2,0,0,0,0,3,0,0,0,0,0,0,0,0],"split_type":[0,0,0,0,0,0,0,0,0,0,0,0,0,0,0,0,0,0,0,0,0,0,0,0,0,0,0,0,0,0,0,0,0,0,0,0,0,0,0,0,0,0,0,0,0,0,0],"sum_hessian":[3.8383633E1,3.6022133E1,2.3614979E0,3.0986212E1,5.035921E0,1.2424268E0,1.1190711E0,1.7885225E1,1.31009865E1,2.838634E0,2.1972868E0,1.0129334E1,7.7558923E0,1.0760141E1,2.3408446E0,1.0389583E0,1.7996757E0,1.0052663E0,1.1920207E0,9.043543E0,1.0857908E0,5.7913303E0,1.9645617E0,6.0221906E0,4.7379513E0,1.179643E0,1.1612017E0,7.815769E0,1.2277741E0,1.0120586E0,4.779272E0,2.7838974E0,3.2382932E0,2.4772508E0,2.2607005E0,1.8848647E0,5.9309044E0,1.7157894E0,3.0634825E0,1.0170931E0,1.7668042E0,1.3298179E0,1.9084753E0,1.0447843E0,1.4324665E0,1.2900883E0,1.7733942E0],"tree_param":{"num_deleted":"0","num_feature":"30","num_nodes":"47","size_leaf_vector":"1"}},{"base_weights":[2.4917247E-2,-5.4731138E-2,8.5756946E-1,-1.5683387E-1,4.7592807E-1,1.3417715E-1,1.0231106E-2,-4.1232356E-1,1.837619E-1,-2.7409343E-2,8.002948E-1,-6.678402E-1,-5.505801E-2,-4.2125333E-2,8.9302236E-1,1.6218439E-1,-3.5377216E-2,-7.2966087E-1,-5.8781877E-3,2.1292025E-1,-6.8377994E-2,3.2834095E-1,-5.1037514E-1,1.08942024E-1,2.7896345E-2,-8.0725E-1,-6.077422E-3,-3.6598694E-2,4.997864E-1,-2.3820797E-1,7.297792E-1,-1.7744815E-1,-7.1537726E-2,-3.2837562E-2,-8.8980906E-2,1.00537695E-1,2.7147604E-2,4.1928623E-2,-6.567557E-2,1.9567164E-2,9.0927236E-2,-2.0725762E-2,-5.5305227E-3,-3.0892307E-2,4.5401692E-2],"categories":[],"categories_nodes":[],"categories_segments":[],"categories_sizes":[],"default_left":[0,0,0,0,0,0,0,0,0,0,0,0,0,0,0,0,0,0,0,0,0,0,0,0,0,0,0,0,0,0,0,0,0,0,0,0,0,0,0,0,0,0,0,0,0],"id":8,"left_children":[1,3,5,7,9,-1,-1,11,13,-1,15,17,19,21,23,-1,-1,25,-1,27,-1,29,31,-1,-1,33,-1,-1,35,37,39,41,-1,-1,-1,-1,43,-1,-1,-1,-1,-1,-1,-1,-1],"loss_changes":[2.6435375E0,2.0617433E0,1.1347075E0,2.8176441E0,1.7193611E0,0E0,0E0,1.634896E0,2.3121426E0,0E0,4.8965807E0,3.5571766E-1,1.6157144E0,2.2010958E0,1.1509633E-1,0E0,0E0,4.4518757E-1,0E0,1.3255551E0,0E0,1.8007097E0,2.5317347E-1,0E0,0E0,4.196596E-2,0E0,0E0,1.1731185E0,1.2992024E0,2.4703956E-1,1.1076182E-3,0E0,0E0,0E0,0E0,6.601611E-1,0E0,0E0,0E0,0E0,0E0,0E0,0E0,0E0],"parents":[2147483647,0,0,1,1,2,2,3,3,4,4,7,7,8,8,10,10,11,11,12,12,13,13,14,14,17,17,19,19,21,21,22,22,25,25,28,28,29,29,30,30,31,31,36,36],"right_children":[2,4,6,8,10,-1,-1,12,14,-1,16,18,20,22,24,-1,-1,26,-1,28,-1,30,32,-1,-1,34,-1,-1,36,38,40,42,-1,-1,-1,-1,44,-1,-1,-1,-1,-1,-1,-1,-1],"split_conditions":[5.894913E0,3.1179028E0,-5.704867E-1,-1.9869522E-9,2.2945171E-7,1.3417715E-1,1.0231106E-2,2.87792E-1,1.9174075E0,-2.7409343E-2,2.5662178E-1,6.0985404E-1,-2.1507326E-1,4.9210995E-1,3.623392E0,1.6218439E-1,-3.5377216E-2,6.3791907E-1,-5.8781877E-3,-6.8533105E-1,-6.8377994E-2,-9.6610546E-2,-2.1507326E-1,1.08942024E-1,2.7896345E-2,-1.0385634E0,-6.077422E-3,-3.6598694E-2,-3.3209875E-1,-4.99404E-1,7.998648E-1,-5.960765E-1,-7.1537726E-2,-3.2837562E-2,-8.8980906E-2,1.00537695E-1,6.0985404E-1,4.1928623E-2,-6.567557E-2,1.9567164E-2,9.0927236E-2,-2.0725762E-2,-5.5305227E-3,-3.0892307E-2,4.5401692E-2],"split_indices":[29,11,8,3,2,0,0,1,8,0,0,0,8,0,8,0,0,8,0,0,0,0,8,0,0,0,0,0,0,8,7,8,0,0,0,0,0,0,0,0,0,0,0,0,0],"split_type":[0,0,0,0,0,0,0,0,0,0,0,0,0,0,0,0,0,0,0,0,0,0,0,0,0,0,0,0,0,0,0,0,0,0,0,0,0,0,0,0,0,0,0,0,0],"sum_hessian":[3.8152977E1,3.5674736E1,2.4782424E0,3.050903E1,5.165707E0,1.036903E0,1.4413394E0,1.7312145E1,1.3196883E1,1.6063625E0,3.5593445E0,9.586536E0,7.72561E0,1.0722544E1,2.4743388E0,1.8424356E0,1.7169089E0,8.52338E0,1.0631557E0,5.880518E0,1.8450916E0,6.153141E0,4.569403E0,1.2881976E0,1.1861411E0,7.4521E0,1.071281E0,1.857069E0,4.023449E0,2.720425E0,3.432716E0,2.4523444E0,2.1170588E0,1.8277731E0,5.6243267E0,1.3993651E0,2.624084E0,1.0574766E0,1.6629484E0,1.3891715E0,2.0435445E0,1.4111118E0,1.0412326E0,1.6227845E0,1.0012995E0],"tree_param":{"num_deleted":"0","num_feature":"30","num_nodes":"45","size_leaf_vector":"1"}},{"base_weights":[2.6980251E-2,-3.4585696E-2,9.991857E-2,-2.911288E-1,1.6080958E-1,-5.01669E-1,2.6778212E-1,3.39921E-1,-4.954993E-1,-6.0528815E-1,1.8176485E-2,-5.9239373E-2,7.259993E-2,4.9477196E-1,-6.885647E-2,-7.81361E-2,8.799373E-3,-1.8378784E-1,-7.080794E-1,5.452597E-2,-6.387455E-2,6.695068E-1,-2.7914613E-1,-2.3324706E-2,-3.0809187E-3,-8.5635416E-2,-3.677377E-1,1.0227128E0,2.4924418E-1,-6.89685E-2,3.2811694E-2,-7.110497E-2,1.8529158E-2,3.2686654E-1,1.3394443E0,-4.963285E-1,7.5596476E-1,-8.354655E-3,5.3364564E-2,3.6585063E-2,1.5519835E-1,-3.7349823E-3,-6.583728E-2,1.17001966E-1,-2.0241212E-2],"categories":[],"categories_nodes":[],"categories_segments":[],"categories_sizes":[],"default_left":[0,0,0,0,0,0,0,0,0,0,0,0,0,0,0,0,0,0,0,0,0,0,0,0,0,0,0,0,0,0,0,0,0,0,0,0,0,0,0,0,0,0,0,0,0],"id":9,"left_children":[1,3,-1,5,7,9,11,13,15,17,-1,19,-1,21,-1,-1,-1,23,25,-1,-1,27,29,-1,-1,-1,31,33,35,-1,-1,-1,-1,37,39,41,43,-1,-1,-1,-1,-1,-1,-1,-1],"loss_changes":[2.3605263E0,1.9272151E0,0E0,2.08469E0,2.7473137E0,9.8724246E-1,8.2027984E-1,3.1799724E0,9.2115307E-1,3.4590626E-1,0E0,1.7325138E0,0E0,2.3609555E0,0E0,0E0,0E0,1.9331068E-2,1.13153934E-1,0E0,0E0,1.7356334E0,1.1404896E0,0E0,0E0,0E0,9.532317E-1,1.0970068E0,3.1882248E0,0E0,0E0,0E0,0E0,3.4170502E-1,3.5568428E-1,2.4438721E-1,2.1532073E0,0E0,0E0,0E0,0E0,0E0,0E0,0E0,0E0],"parents":[2147483647,0,0,1,1,3,3,4,4,5,5,6,6,7,7,8,8,9,9,11,11,13,13,17,17,18,18,21,21,22,22,26,26,27,27,28,28,33,33,34,34,35,35,36,36],"right_children":[2,4,-1,6,8,10,12,14,16,18,-1,20,-1,22,-1,-1,-1,24,26,-1,-1,28,30,-1,-1,-1,32,34,36,-1,-1,-1,-1,38,40,42,44,-1,-1,-1,-1,-1,-1,-1,-1],"split_conditions":[6.821087E0,1.684558E-3,9.991857E-2,8.9706147E-1,1.076855E0,1.0644152E0,1.2330549E0,4.369146E-9,2.1520252E0,-1.0385634E0,1.8176485E-2,-1.9703914E-1,7.259993E-2,8.9706147E-1,-6.885647E-2,-7.81361E-2,8.799373E-3,-5.704867E-1,2.87792E-1,5.452597E-2,-6.387455E-2,-4.766576E-1,3.6007467E-1,-2.3324706E-2,-3.0809187E-3,-8.5635416E-2,-5.477402E-1,-1.9703914E-1,-1.9869522E-9,-6.89685E-2,3.2811694E-2,-7.110497E-2,1.8529158E-2,-6.8533105E-1,-2.1435463E-1,-4.8985593E-9,1.2330549E0,-8.354655E-3,5.3364564E-2,3.6585063E-2,1.5519835E-1,-3.7349823E-3,-6.583728E-2,1.17001966E-1,-2.0241212E-2],"split_indices":[22,2,0,1,2,8,3,17,2,0,0,3,0,1,0,0,0,8,1,0,0,8,2,0,0,0,8,3,3,0,0,0,0,0,0,8,3,0,0,0,0,0,0,0,0],"split_type":[0,0,0,0,0,0,0,0,0,0,0,0,0,0,0,0,0,0,0,0,0,0,0,0,0,0,0,0,0,0,0,0,0,0,0,0,0,0,0,0,0,0,0,0,0],"sum_hessian":[3.7860226E1,3.6512463E1,1.3477651E0,1.557431E1,2.093815E1,1.1387201E1,4.187109E0,1.6827795E1,4.110355E0,9.987312E0,1.399889E0,2.9514377E0,1.2356713E0,1.5076742E1,1.751054E0,2.5311828E0,1.5791723E0,2.5046892E0,7.4826226E0,1.4734924E0,1.4779454E0,1.24097805E1,2.6669617E0,1.4962395E0,1.0084497E0,4.1558905E0,3.3267324E0,5.963935E0,6.445845E0,1.5102402E0,1.1567215E0,1.8762497E0,1.4504827E0,2.5011058E0,3.4628294E0,2.6165073E0,3.8293378E0,1.0376167E0,1.463489E0,1.1081192E0,2.35471E0,1.0038021E0,1.6127052E0,2.519838E0,1.3094996E0],"tree_param":{"num_deleted":"0","num_feature":"30","num_nodes":"45","size_leaf_vector":"1"}},{"base_weights":[2.4970185E-2,2.4498524E-1,-2.2729465E-1,-3.3493772E-2,1.1061229E0,-4.001425E-1,3.7882796E-1,-7.149087E-2,1.047223E-1,1.4382835E-1,1.3724635E-2,-1.1195516E-1,-8.7519884E-2,-3.1352732E-2,8.593987E-2,-2.9568577E-1,3.6051473E-1,2.0094846E-1,-5.924557E-1,6.031224E-2,-6.727981E-2,-2.791289E-1,6.728786E-1,-2.177522E-1,7.535149E-1,-1.0934629E-2,-7.282714E-2,-5.8126982E-2,7.799954E-3,8.551705E-1,-1.1579129E-2,2.0014456E-2,-4.5660907E-1,-9.614917E-3,1.21519946E-1,2.8398603E-2,1.0779867E0,-9.181837E-3,-5.9662677E-2,-1.1397454E-2,1.637473E-1],"categories":[],"categories_nodes":[],"categories_segments":[],"categories_sizes":[],"default_left":[0,0,0,0,0,0,0,0,0,0,0,0,0,0,0,0,0,0,0,0,0,0,0,0,0,0,0,0,0,0,0,0,0,0,0,0,0,0,0,0,0],"id":10,"left_children":[1,3,5,7,9,11,13,-1,15,-1,-1,17,-1,-1,-1,19,21,23,25,-1,-1,27,29,31,33,-1,-1,-1,-1,35,-1,-1,37,-1,-1,-1,39,-1,-1,-1,-1],"loss_changes":[2.207781E0,5.119243E0,2.0984056E0,1.6745205E0,1.4786787E0,1.948122E0,1.8122861E0,0E0,1.6421716E0,0E0,0E0,1.6900594E0,0E0,0E0,0E0,2.5729268E0,2.10572E0,1.8009096E0,2.0737112E-1,0E0,0E0,4.6145004E-1,1.0684035E0,5.70588E-1,1.4011768E0,0E0,0E0,0E0,0E0,4.0607023E-1,0E0,0E0,1.16812766E-1,0E0,0E0,0E0,2.6327596E0,0E0,0E0,0E0,0E0],"parents":[2147483647,0,0,1,1,2,2,3,3,4,4,5,5,6,6,8,8,11,11,15,15,16,16,17,17,18,18,21,21,22,22,23,23,24,24,29,29,32,32,36,36],"right_children":[2,4,6,8,10,12,14,-1,16,-1,-1,18,-1,-1,-1,20,22,24,26,-1,-1,28,30,32,34,-1,-1,-1,-1,36,-1,-1,38,-1,-1,-1,40,-1,-1,-1,-1],"split_conditions":[-3.5723865E-1,9.558452E-9,1.9174075E0,-7.150957E-1,2.87792E-1,9.214334E-9,1.1985745E0,-7.149087E-2,-1.9703914E-1,1.4382835E-1,1.3724635E-2,3.6007467E-1,-8.7519884E-2,-3.1352732E-2,8.593987E-2,-3.5670555E-1,1.684558E-3,1.684558E-3,-2.1507326E-1,6.031224E-2,-6.727981E-2,-9.6610546E-2,1.076855E0,-4.4984284E-1,-1.9869522E-9,-1.0934629E-2,-7.282714E-2,-5.8126982E-2,7.799954E-3,2.1133557E-2,-1.1579129E-2,2.0014456E-2,3.5358828E-1,-9.614917E-3,1.21519946E-1,2.8398603E-2,3.6007467E-1,-9.181837E-3,-5.9662677E-2,-1.1397454E-2,1.637473E-1],"split_indices":[8,11,8,2,1,9,0,0,3,0,0,2,0,0,0,2,2,2,8,0,0,0,2,0,3,0,0,0,0,0,0,0,8,0,0,0,2,0,0,0,0],"split_type":[0,0,0,0,0,0,0,0,0,0,0,0,0,0,0,0,0,0,0,0,0,0,0,0,0,0,0,0,0,0,0,0,0,0,0,0,0,0,0,0,0],"sum_hessian":[3.7775085E1,2.01927E1,1.7582388E1,1.5984618E1,4.208081E0,1.3945411E1,3.6369767E0,1.991919E0,1.39927E1,2.7729447E0,1.435136E0,9.448971E0,4.4964395E0,1.6325564E0,2.0044203E0,5.3936768E0,8.599023E0,6.0748205E0,3.374151E0,1.4170256E0,3.976651E0,2.856342E0,5.7426805E0,3.800763E0,2.2740574E0,1.1365266E0,2.2376244E0,1.2073058E0,1.6490364E0,4.59604E0,1.1466409E0,1.4412569E0,2.3595061E0,1.0793716E0,1.1946857E0,1.928052E0,2.6679876E0,1.113707E0,1.2457992E0,1.1066356E0,1.5613521E0],"tree_param":{"num_deleted":"0","num_feature":"30","num_nodes":"41","size_leaf_vector":"1"}},{"base_weights":[2.4142742E-2,-5.005104E-2,7.567073E-1,-1.004989E-1,8.0541246E-2,1.1222396E-1,1.128855E-2,-1.9718401E-1,3.5707557E-1,-3.6184546E-1,2.6155517E-2,-2.8328924E-2,6.331598E-1,-6.2087643E-1,-2.8604114E-2,2.0945549E-1,-7.101666E-2,1.2794913E-1,-3.5303768E-2,-2.4119711E-1,-7.407193E-1,2.15229E-1,-6.512372E-2,3.5461697E-1,-5.901895E-2,-5.3106885E-2,6.2116683E-3,-8.563348E-2,-9.90522E-3,-3.371228E-2,4.7241256E-1,-8.863647E-2,6.5772367E-1,1.34818E-1,-8.9705996E-2,7.398667E-2,-5.469844E-1,4.1971602E-3,1.1662334E-1,-5.8658402E-2,3.2478336E-2,-6.6717125E-2,-1.4321593E-2,-3.0605212E-2,4.1789524E-2],"categories":[],"categories_nodes":[],"categories_segments":[],"categories_sizes":[],"default_left":[0,0,0,0,0,0,0,0,0,0,0,0,0,0,0,0,0,0,0,0,0,0,0,0,0,0,0,0,0,0,0,0,0,0,0,0,0,0,0,0,0,0,0,0,0],"id":11,"left_children":[1,3,5,7,-1,-1,-1,9,11,13,15,-1,17,19,21,23,-1,-1,-1,25,27,29,-1,31,-1,-1,-1,-1,-1,-1,33,35,37,-1,39,-1,41,43,-1,-1,-1,-1,-1,-1,-1],"loss_changes":[2.134852E0,1.6333356E0,7.2293377E-1,1.6125193E0,0E0,0E0,0E0,1.0914348E0,1.3172662E0,1.4499042E0,1.9598018E0,0E0,3.5153813E0,2.544372E-1,1.4282566E0,1.5460503E0,0E0,0E0,0E0,3.6413962E-1,4.1607118E-1,1.1321169E0,0E0,1.4517273E0,0E0,0E0,0E0,0E0,0E0,0E0,2.626256E0,2.3388019E0,2.0815032E0,0E0,1.0219861E0,0E0,9.1478944E-2,6.0933214E-1,0E0,0E0,0E0,0E0,0E0,0E0,0E0],"parents":[2147483647,0,0,1,1,2,2,3,3,7,7,8,8,9,9,10,10,12,12,13,13,14,14,15,15,19,19,20,20,21,21,23,23,30,30,31,31,32,32,34,34,36,36,37,37],"right_children":[2,4,6,8,-1,-1,-1,10,12,14,16,-1,18,20,22,24,-1,-1,-1,26,28,30,-1,32,-1,-1,-1,-1,-1,-1,34,36,38,-1,40,-1,42,44,-1,-1,-1,-1,-1,-1,-1],"split_conditions":[5.894913E0,2.1405275E0,-5.704867E-1,3.1179028E0,8.0541246E-2,1.1222396E-1,1.128855E-2,-1.9869522E-9,2.2945171E-7,2.87792E-1,1.9481019E0,-2.8328924E-2,2.5662178E-1,-3.5670555E-1,-2.1507326E-1,1.4340628E0,-7.101666E-2,1.2794913E-1,-3.5303768E-2,-7.150957E-1,1.076855E0,-6.8533105E-1,-6.512372E-2,1.3887766E-1,-5.901895E-2,-5.3106885E-2,6.2116683E-3,-8.563348E-2,-9.90522E-3,-3.371228E-2,-4.4984284E-1,5.180079E-1,7.3304386E-3,1.34818E-1,-1.9703914E-1,7.398667E-2,-9.6610546E-2,8.9706147E-1,1.1662334E-1,-5.8658402E-2,3.2478336E-2,-6.6717125E-2,-1.4321593E-2,-3.0605212E-2,4.1789524E-2],"split_indices":[29,0,8,11,0,0,0,3,2,1,3,0,0,2,8,0,0,0,0,2,2,0,0,0,0,0,0,0,0,0,0,3,8,0,3,0,0,1,0,0,0,0,0,0,0],"split_type":[0,0,0,0,0,0,0,0,0,0,0,0,0,0,0,0,0,0,0,0,0,0,0,0,0,0,0,0,0,0,0,0,0,0,0,0,0,0,0,0,0,0,0,0,0],"sum_hessian":[3.758161E1,3.4971405E1,2.6102097E0,3.385731E1,1.1140913E0,1.190952E0,1.4192579E0,2.8421038E1,5.436275E0,1.6002628E1,1.2418409E1,1.6298397E0,3.8064353E0,8.518213E0,7.4844136E0,1.0516076E1,1.9023334E0,2.1197805E0,1.6866549E0,2.7664182E0,5.7517953E0,5.8484077E0,1.636006E0,9.371396E0,1.14468E0,1.0306013E0,1.735817E0,4.5901895E0,1.1616061E0,1.7592498E0,4.089158E0,4.0932026E0,5.278194E0,1.0519124E0,3.0372455E0,1.2391425E0,2.85406E0,2.7509642E0,2.5272298E0,1.1925061E0,1.8447393E0,1.6966647E0,1.1573952E0,1.7207252E0,1.030239E0],"tree_param":{"num_deleted":"0","num_feature":"30","num_nodes":"45","size_leaf_vector":"1"}},{"base_weights":[2.328871E-2,-4.728264E-2,6.97976E-1,-9.5631E-2,7.384314E-2,1.0252031E-1,1.0578542E-2,8.6355366E-2,-3.16688E-1,-1.7611217E-1,8.3120596E-1,-4.3376374E-1,4.245087E-2,-4.6643546E-1,3.846781E-2,1.0976257E0,-1.479349E-2,-5.217154E-1,2.6412059E-2,1.481583E-1,-8.2728505E-2,-4.197355E-1,3.866227E-1,2.1015136E-2,1.4115144E-1,-6.59923E-1,5.061426E-2,-1.214335E-2,3.604897E-2,-6.880321E-2,-2.8441692E-4,6.975033E-1,-1.2465273E-2,-1.3083232E-2,-7.9254967E-1,3.660863E-2,-2.521181E-2,1.9599192E-2,9.067957E-2,-3.1269144E-2,-8.7832324E-2],"categories":[],"categories_nodes":[],"categories_segments":[],"categories_sizes":[],"default_left":[0,0,0,0,0,0,0,0,0,0,0,0,0,0,0,0,0,0,0,0,0,0,0,0,0,0,0,0,0,0,0,0,0,0,0,0,0,0,0,0,0],"id":12,"left_children":[1,3,5,7,-1,-1,-1,9,11,13,15,17,-1,19,21,23,-1,25,-1,27,-1,29,31,-1,-1,33,35,-1,-1,-1,-1,37,-1,-1,39,-1,-1,-1,-1,-1,-1],"loss_changes":[1.858296E0,1.424584E0,6.072942E-1,1.4137019E0,0E0,0E0,0E0,3.9951153E0,1.5529926E0,9.762212E-1,1.5460992E0,1.004322E0,0E0,1.5892923E0,1.7206446E0,8.9803314E-1,0E0,1.0516958E0,0E0,2.3237248E-1,0E0,5.234319E-1,1.0519843E0,0E0,0E0,6.289458E-1,4.2014167E-1,0E0,0E0,0E0,0E0,2.3449564E-1,0E0,0E0,6.081724E-2,0E0,0E0,0E0,0E0,0E0,0E0],"parents":[2147483647,0,0,1,1,2,2,3,3,7,7,8,8,9,9,10,10,11,11,13,13,14,14,15,15,17,17,19,19,21,21,22,22,25,25,26,26,31,31,34,34],"right_children":[2,4,6,8,-1,-1,-1,10,12,14,16,18,-1,20,22,24,-1,26,-1,28,-1,30,32,-1,-1,34,36,-1,-1,-1,-1,38,-1,-1,40,-1,-1,-1,-1,-1,-1],"split_conditions":[5.894913E0,2.1405275E0,-5.704867E-1,-3.5723865E-1,7.384314E-2,1.0252031E-1,1.0578542E-2,9.558452E-9,3.608346E-1,-1.9703914E-1,1.076855E0,1.5063311E0,4.245087E-2,-3.5670555E-1,1.684558E-3,-5.6758696E-1,-1.479349E-2,1.9174075E0,2.6412059E-2,-1.0385634E0,-8.2728505E-2,-9.6610546E-2,5.180079E-1,2.1015136E-2,1.4115144E-1,-2.1507326E-1,2.7703998E0,-1.214335E-2,3.604897E-2,-6.880321E-2,-2.8441692E-4,-4.334133E-8,-1.2465273E-2,-1.3083232E-2,-3.2147753E-1,3.660863E-2,-2.521181E-2,1.9599192E-2,9.067957E-2,-3.1269144E-2,-8.7832324E-2],"split_indices":[29,0,8,8,0,0,0,11,6,3,2,1,0,2,2,0,0,8,0,0,0,0,3,0,0,8,8,0,0,0,0,1,0,0,1,0,0,0,0,0,0],"split_type":[0,0,0,0,0,0,0,0,0,0,0,0,0,0,0,0,0,0,0,0,0,0,0,0,0,0,0,0,0,0,0,0,0,0,0,0,0,0,0,0,0],"sum_hessian":[3.7335567E1,3.4641983E1,2.693584E0,3.3461254E1,1.1807274E0,1.263955E0,1.429629E0,1.868669E1,1.4774566E1,1.4382278E1,4.304411E0,1.3117388E1,1.6571782E0,5.6135383E0,8.768741E0,3.288591E0,1.0158198E0,1.1873455E1,1.2439325E0,2.294684E0,3.318854E0,3.6972394E0,5.0715013E0,1.2954382E0,1.9931529E0,9.440655E0,2.4328003E0,1.1996337E0,1.0950502E0,1.8538069E0,1.8434324E0,2.9273105E0,2.1441908E0,2.2903154E0,7.150339E0,1.0888525E0,1.3439478E0,1.4321083E0,1.4952021E0,1.7887524E0,5.3615866E0],"tree_param":{"num_deleted":"0","num_feature":"30","num_nodes":"41","size_leaf_vector":"1"}},{"base_weights":[2.630062E-2,1.0605272E-1,-5.098172E-1,-2.0878665E-1,3.6879846E-1,9.0974225E-3,-7.881717E-2,-5.8420813E-1,4.054622E-2,4.9763998E-1,-6.6170536E-2,-6.785209E-2,-4.391003E-3,1.2063145E-1,-3.0436873E-1,2.9376966E-1,1.2021704E0,-7.4805036E-2,-3.8369045E-2,-1.7848489E-1,7.0081973E-1,1.4903234E-1,2.7498428E-2,2.5776464E-1,-6.517308E-2,-5.576848E-1,2.0953305E-1,8.820329E-1,-1.7364977E-2,-1.7825894E-1,6.997495E-2,-4.675435E-3,-7.124166E-2,-2.5602236E-2,5.072186E-2,1.0386826E0,1.5356644E-2,4.1646358E-2,-6.1685134E-2,2.3713676E-2,1.2272817E0,1.3790669E-1,3.842997E-2],"categories":[],"categories_nodes":[],"categories_segments":[],"categories_sizes":[],"default_left":[0,0,0,0,0,0,0,0,0,0,0,0,0,0,0,0,0,0,0,0,0,0,0,0,0,0,0,0,0,0,0,0,0,0,0,0,0,0,0,0,0,0,0],"id":13,"left_children":[1,3,5,7,9,-1,-1,11,13,15,-1,-1,-1,-1,17,19,21,-1,23,25,27,-1,-1,29,-1,31,33,35,-1,37,-1,-1,-1,-1,-1,39,-1,-1,-1,-1,41,-1,-1],"loss_changes":[1.6786696E0,2.8816333E0,9.23349E-1,1.5271316E0,2.831032E0,0E0,0E0,3.0014825E-1,4.6239724E0,2.1344414E0,0E0,0E0,0E0,0E0,1.0297036E0,2.9615855E0,5.42253E-1,0E0,1.3778358E0,1.2391722E0,1.4411573E0,0E0,0E0,1.128515E0,0E0,2.9326236E-1,7.5308514E-1,6.2756157E-1,0E0,1.1486983E0,0E0,0E0,0E0,0E0,0E0,5.4086494E-1,0E0,0E0,0E0,0E0,9.386063E-3,0E0,0E0],"parents":[2147483647,0,0,1,1,2,2,3,3,4,4,7,7,8,8,9,9,14,14,15,15,16,16,18,18,19,19,20,20,23,23,25,25,26,26,27,27,29,29,35,35,40,40],"right_children":[2,4,6,8,10,-1,-1,12,14,16,-1,-1,-1,-1,18,20,22,-1,24,26,28,-1,-1,30,-1,32,34,36,-1,38,-1,-1,-1,-1,-1,40,-1,-1,-1,-1,42,-1,-1],"split_conditions":[1.076855E0,1.684558E-3,-3.2147753E-1,-6.8533105E-1,4.369146E-9,9.0974225E-3,-7.881717E-2,4.369146E-9,-4.4984284E-1,9.558452E-9,-6.6170536E-2,-6.785209E-2,-4.391003E-3,1.2063145E-1,-1.9869522E-9,-1.9869522E-9,-5.477402E-1,-7.4805036E-2,1.9481019E0,2.87792E-1,8.9706147E-1,1.4903234E-1,2.7498428E-2,1.2330549E0,-6.517308E-2,-5.6758696E-1,-1.9703914E-1,1.4340628E0,-1.7364977E-2,-4.766576E-1,6.997495E-2,-4.675435E-3,-7.124166E-2,-2.5602236E-2,5.072186E-2,2.1133557E-2,1.5356644E-2,4.1646358E-2,-6.1685134E-2,2.3713676E-2,1.2330549E0,1.3790669E-1,3.842997E-2],"split_indices":[2,2,1,0,17,0,0,22,0,11,0,0,0,0,3,3,8,0,3,1,1,0,0,3,0,0,3,0,0,8,0,0,0,0,0,0,0,0,0,0,3,0,0],"split_type":[0,0,0,0,0,0,0,0,0,0,0,0,0,0,0,0,0,0,0,0,0,0,0,0,0,0,0,0,0,0,0,0,0,0,0,0,0,0,0,0,0,0,0],"sum_hessian":[3.6996597E1,3.2904026E1,4.092571E0,1.5061593E1,1.7842432E1,1.5089254E0,2.583645E0,5.474912E0,9.586681E0,1.6319174E1,1.5232584E0,4.4434505E0,1.0314614E0,1.6185989E0,7.9680824E0,1.3755663E1,2.5635114E0,2.3073132E0,5.6607695E0,6.6277475E0,7.127916E0,1.4923527E0,1.0711585E0,4.2085934E0,1.4521757E0,3.1308165E0,3.496931E0,5.897209E0,1.2307066E0,2.4189522E0,1.7896411E0,1.0304372E0,2.1003792E0,1.4184891E0,2.0784419E0,4.5030284E0,1.394181E0,1.0481441E0,1.3708082E0,1.2876937E0,3.2153347E0,2.1858225E0,1.0295122E0],"tree_param":{"num_deleted":"0","num_feature":"30","num_nodes":"43","size_leaf_vector":"1"}},{"base_weights":[2.5840685E-2,2.1548137E-1,-1.8448086E-1,7.38919E-2,1.1959889E-1,-2.8909417E-2,-7.717409E-2,-3.44137E-1,3.635567E-1,7.464481E-2,-6.403733E-2,-5.6339245E-2,1.9959933E-1,5.8975905E-1,-4.3284237E-2,2.8109628E-1,-2.638071E-1,3.53201E-2,-5.884842E-3,2.04285E-1,9.5482E-1,-5.519798E-2,4.6357104E-1,3.906485E-2,-4.80822E-1,5.547878E-1,-2.2259046E-1,-1.4324483E-2,1.3816868E-1,5.6792694E-1,-1.2357105E-2,-7.8124076E-2,1.8127767E-2,9.4722204E-2,-1.6696122E-2,-6.2817626E-2,3.0748773E-2,7.0876825E-1,-1.0669376E-2,9.888197E-1,1.5502425E-1,1.6559847E-2,1.4209904E-1,7.2647154E-2,-5.510345E-2],"categories":[],"categories_nodes":[],"categories_segments":[],"categories_sizes":[],"default_left":[0,0,0,0,0,0,0,0,0,0,0,0,0,0,0,0,0,0,0,0,0,0,0,0,0,0,0,0,0,0,0,0,0,0,0,0,0,0,0,0,0,0,0,0,0],"id":14,"left_children":[1,3,5,7,-1,9,-1,11,13,15,-1,-1,17,19,-1,21,23,-1,-1,25,27,-1,29,-1,31,33,35,-1,-1,37,-1,-1,-1,-1,-1,-1,-1,39,-1,41,43,-1,-1,-1,-1],"loss_changes":[1.5453442E0,2.7314034E0,1.6620879E0,2.4032702E0,0E0,1.036503E0,0E0,1.0917561E0,2.3449037E0,1.0697646E0,0E0,0E0,1.4380649E-1,1.1357462E0,0E0,1.674839E0,1.0278285E0,0E0,0E0,1.0020759E0,2.346993E0,0E0,5.726466E-1,0E0,1.1142415E0,1.1525501E0,9.1579986E-1,0E0,0E0,7.541914E-1,0E0,0E0,0E0,0E0,0E0,0E0,0E0,7.83236E-1,0E0,1.125443E0,1.6972089E0,0E0,0E0,0E0,0E0],"parents":[2147483647,0,0,1,1,2,2,3,3,5,5,7,7,8,8,9,9,12,12,13,13,15,15,16,16,19,19,20,20,22,22,24,24,25,25,26,26,29,29,37,37,39,39,40,40],"right_children":[2,4,6,8,-1,10,-1,12,14,16,-1,-1,18,20,-1,22,24,-1,-1,26,28,-1,30,-1,32,34,36,-1,-1,38,-1,-1,-1,-1,-1,-1,-1,40,-1,42,44,-1,-1,-1,-1],"split_conditions":[-4.766576E-1,4.369146E-9,4.369146E-9,1.684558E-3,1.1959889E-1,1.9481019E0,-7.717409E-2,8.9706147E-1,1.076855E0,3.6007467E-1,-6.403733E-2,-5.6339245E-2,-5.6758696E-1,1.3887766E-1,-4.3284237E-2,-6.8533105E-1,-2.1435463E-1,3.53201E-2,-5.884842E-3,-4.4984284E-1,3.6007467E-1,-5.519798E-2,9.214334E-9,3.906485E-2,1.1985745E0,3.6007467E-1,1.6112086E-8,-1.4324483E-2,1.3816868E-1,1.1787094E0,-1.2357105E-2,-7.8124076E-2,1.8127767E-2,9.4722204E-2,-1.6696122E-2,-6.2817626E-2,3.0748773E-2,-4.334133E-8,-1.0669376E-2,1.3887766E-1,2.5662178E-1,1.6559847E-2,1.4209904E-1,7.2647154E-2,-5.510345E-2],"split_indices":[8,22,17,2,0,3,0,1,2,2,0,0,0,0,0,0,0,0,0,0,2,0,9,0,0,2,7,0,0,5,0,0,0,0,0,0,0,1,0,0,0,0,0,0,0],"split_type":[0,0,0,0,0,0,0,0,0,0,0,0,0,0,0,0,0,0,0,0,0,0,0,0,0,0,0,0,0,0,0,0,0,0,0,0,0,0,0,0,0,0,0,0,0],"sum_hessian":[3.6747833E1,1.9311077E1,1.7436756E1,1.7814018E1,1.497059E0,1.4614458E1,2.8222983E0,7.2144513E0,1.0599566E1,1.324866E1,1.3657975E0,5.115525E0,2.0989265E0,8.456985E0,2.1425815E0,8.334303E0,4.9143577E0,1.0865434E0,1.0123831E0,4.872072E0,3.5849128E0,1.1336654E0,7.200638E0,1.0245388E0,3.8898187E0,2.5108185E0,2.3612537E0,1.1894971E0,2.3954158E0,6.141757E0,1.0588808E0,2.551958E0,1.3378607E0,1.4240994E0,1.0867192E0,1.2328689E0,1.1283848E0,5.0391173E0,1.1026397E0,2.8248E0,2.2143173E0,1.4486032E0,1.3761967E0,1.2078419E0,1.0064754E0],"tree_param":{"num_deleted":"0","num_feature":"30","num_nodes":"45","size_leaf_vector":"1"}},{"base_weights":[2.5787747E-2,9.742646E-2,-4.7787574E-1,-1.7936172E-1,3.1582472E-1,1.059057E-2,-7.655141E-2,-5.4549634E-1,4.836004E-2,4.2547527E-1,-6.350257E-2,-1.6562274E-1,-7.5821325E-2,1.04073934E-1,-2.7771986E-1,2.4579147E-1,1.0492787E0,-1.9441733E-2,-5.112482E-3,-7.2395645E-2,-2.2560421E-2,-1.8757716E-1,6.0869426E-1,1.2980425E-1,2.387015E-2,2.4387117E-1,-6.1745085E-2,-5.460561E-1,1.6777433E-1,7.58128E-1,-1.6051399E-2,-1.6336195E-1,6.351731E-2,-5.75155E-3,-6.9822356E-2,-2.7541563E-2,4.597989E-2,8.9901817E-1,1.14581855E-2,3.9663892E-2,-5.9869327E-2,2.183774E-2,1.0494642E0,2.9035872E-2,1.2031566E-1],"categories":[],"categories_nodes":[],"categories_segments":[],"categories_sizes":[],"default_left":[0,0,0,0,0,0,0,0,0,0,0,0,0,0,0,0,0,0,0,0,0,0,0,0,0,0,0,0,0,0,0,0,0,0,0,0,0,0,0,0,0,0,0,0,0],"id":15,"left_children":[1,3,5,7,9,-1,-1,11,13,15,-1,17,-1,-1,19,21,23,-1,-1,-1,25,27,29,-1,-1,31,-1,33,35,37,-1,39,-1,-1,-1,-1,-1,41,-1,-1,-1,-1,43,-1,-1],"loss_changes":[1.3990299E0,2.0905836E0,8.9327943E-1,1.3168329E0,2.2687943E0,0E0,0E0,3.605826E-1,3.6741388E0,1.7356832E0,0E0,1.3990551E-3,0E0,0E0,9.7006136E-1,2.4912338E0,4.3050003E-1,0E0,0E0,0E0,1.187745E0,1.0664833E0,1.0943093E0,0E0,0E0,9.3819505E-1,0E0,2.6052463E-1,7.2303545E-1,5.5523586E-1,0E0,1.0569284E0,0E0,0E0,0E0,0E0,0E0,3.6574984E-1,0E0,0E0,0E0,0E0,1.7512369E-1,0E0,0E0],"parents":[2147483647,0,0,1,1,2,2,3,3,4,4,7,7,8,8,9,9,11,11,14,14,15,15,16,16,20,20,21,21,22,22,25,25,27,27,28,28,29,29,31,31,37,37,42,42],"right_children":[2,4,6,8,10,-1,-1,12,14,16,-1,18,-1,-1,20,22,24,-1,-1,-1,26,28,30,-1,-1,32,-1,34,36,38,-1,40,-1,-1,-1,-1,-1,42,-1,-1,-1,-1,44,-1,-1],"split_conditions":[1.076855E0,1.684558E-3,-3.2147753E-1,-6.8533105E-1,4.369146E-9,1.059057E-2,-7.655141E-2,-1.0385634E0,-4.4984284E-1,9.558452E-9,-6.350257E-2,-1.1563075E0,-7.5821325E-2,1.04073934E-1,-1.9869522E-9,-1.9869522E-9,-5.477402E-1,-1.9441733E-2,-5.112482E-3,-7.2395645E-2,1.9481019E0,2.87792E-1,8.9706147E-1,1.2980425E-1,2.387015E-2,1.2330549E0,-6.1745085E-2,-5.6758696E-1,-1.9703914E-1,1.4340628E0,-1.6051399E-2,-4.766576E-1,6.351731E-2,-5.75155E-3,-6.9822356E-2,-2.7541563E-2,4.597989E-2,2.1133557E-2,1.14581855E-2,3.9663892E-2,-5.9869327E-2,2.183774E-2,-5.477402E-1,2.9035872E-2,1.2031566E-1],"split_indices":[2,2,1,0,17,0,0,0,0,11,0,0,0,0,3,3,8,0,0,0,3,1,1,0,0,3,0,0,3,0,0,8,0,0,0,0,0,0,0,0,0,0,8,0,0],"split_type":[0,0,0,0,0,0,0,0,0,0,0,0,0,0,0,0,0,0,0,0,0,0,0,0,0,0,0,0,0,0,0,0,0,0,0,0,0,0,0,0,0,0,0,0,0],"sum_hessian":[3.6483494E1,3.2646564E1,3.8369286E0,1.4477354E1,1.8169212E1,1.4750416E0,2.361887E0,5.0164213E0,9.460933E0,1.6786007E1,1.3832036E0,2.4391499E0,2.5772717E0,1.7978265E0,7.6631064E0,1.411443E1,2.6715777E0,1.3912674E0,1.0478823E0,2.1193688E0,5.5437374E0,6.652872E0,7.4615583E0,1.5840554E0,1.0875224E0,4.2364364E0,1.3073014E0,3.0447056E0,3.6081662E0,6.2598624E0,1.2016957E0,2.3614063E0,1.8750299E0,1.0503817E0,1.9943238E0,1.4557413E0,2.152425E0,4.809872E0,1.4499905E0,1.0716889E0,1.2897174E0,1.3144835E0,3.4953885E0,1.0750083E0,2.42038E0],"tree_param":{"num_deleted":"0","num_feature":"30","num_nodes":"45","size_leaf_vector":"1"}},{"base_weights":[2.3053177E-2,1.9242842E-1,-1.8431415E-1,-9.5318435E-3,7.2830194E-1,-3.8497183E-2,-7.4412145E-2,-6.7001395E-2,1.1250384E-1,9.9126816E-1,1.5448479E-3,1.6758578E-1,-3.9552125E-1,-1.880753E-1,3.3266294E-1,3.4516245E-2,1.4038438E-1,-1.02455676E-1,3.69665E-1,-6.0141796E-1,1.75189E-2,-3.6150128E-1,3.6555316E-2,1.7016989E-1,7.656855E-2,2.562696E-1,-6.253834E-2,7.923147E-2,2.1722019E-2,-1.2998114E-2,-7.356923E-2,2.9394343E-2,-6.1533015E-2,4.1733873E-1,-3.916751E-2,-1.9138927E-2,5.837528E-2,3.6486823E-2,-3.279028E-2,8.29786E-2,1.4702305E-1,-1.7074656E-1,4.9201693E-2,3.4170084E-2,-6.0293544E-2],"categories":[],"categories_nodes":[],"categories_segments":[],"categories_sizes":[],"default_left":[0,0,0,0,0,0,0,0,0,0,0,0,0,0,0,0,0,0,0,0,0,0,0,0,0,0,0,0,0,0,0,0,0,0,0,0,0,0,0,0,0,0,0,0,0],"id":16,"left_children":[1,3,5,7,9,11,-1,-1,13,15,-1,17,19,21,23,-1,-1,25,27,29,-1,31,-1,33,-1,35,-1,-1,37,-1,-1,-1,-1,39,-1,-1,-1,-1,-1,-1,41,43,-1,-1,-1],"loss_changes":[1.3450474E0,2.2809763E0,1.3813859E0,1.3849839E0,1.0652521E0,1.1521686E0,0E0,0E0,1.0267434E0,6.337309E-1,0E0,5.868294E-1,7.750212E-1,7.8492516E-1,4.8687768E-1,0E0,0E0,1.1148584E0,8.6085933E-1,1.8375993E-1,0E0,1.1258342E0,0E0,1.2277211E0,0E0,6.58193E-1,0E0,0E0,6.3589174E-1,0E0,0E0,0E0,0E0,5.2536595E-1,0E0,0E0,0E0,0E0,0E0,0E0,6.0177636E-1,9.1492414E-1,0E0,0E0,0E0],"parents":[2147483647,0,0,1,1,2,2,3,3,4,4,5,5,8,8,9,9,11,11,12,12,13,13,14,14,17,17,18,18,19,19,21,21,23,23,25,25,28,28,33,33,40,40,41,41],"right_children":[2,4,6,8,10,12,-1,-1,14,16,-1,18,20,22,24,-1,-1,26,28,30,-1,32,-1,34,-1,36,-1,-1,38,-1,-1,-1,-1,40,-1,-1,-1,-1,-1,-1,42,44,-1,-1,-1],"split_conditions":[-3.5723865E-1,9.558452E-9,4.369146E-9,-7.150957E-1,2.87792E-1,3.6007467E-1,-7.4412145E-2,-6.7001395E-2,2.87792E-1,-5.704867E-1,1.5448479E-3,1.3887766E-1,1.9174075E0,-5.477402E-1,9.214334E-9,3.4516245E-2,1.4038438E-1,5.180079E-1,4.9210995E-1,2.1133557E-2,1.75189E-2,-9.208192E-1,3.6555316E-2,-5.960765E-1,7.656855E-2,-5.6758696E-1,-6.253834E-2,7.923147E-2,-4.334133E-8,-1.2998114E-2,-7.356923E-2,2.9394343E-2,-6.1533015E-2,-3.5670555E-1,-3.916751E-2,-1.9138927E-2,5.837528E-2,3.6486823E-2,-3.279028E-2,8.29786E-2,3.6007467E-1,-9.6610546E-2,4.9201693E-2,3.4170084E-2,-6.0293544E-2],"split_indices":[8,11,17,2,1,2,0,0,1,8,0,0,8,8,9,0,0,3,0,0,0,0,0,8,0,0,0,0,1,0,0,0,0,2,0,0,0,0,0,0,2,0,0,0,0],"split_type":[0,0,0,0,0,0,0,0,0,0,0,0,0,0,0,0,0,0,0,0,0,0,0,0,0,0,0,0,0,0,0,0,0,0,0,0,0,0,0,0,0,0,0,0,0],"sum_hessian":[3.628566E1,2.001207E1,1.6273588E1,1.5247716E1,4.764354E0,1.3758566E1,2.515022E0,1.6776453E0,1.3570071E1,3.1951308E0,1.5692234E0,9.059694E0,4.6988716E0,5.798803E0,7.7712684E0,1.9609026E0,1.2342281E0,4.088784E0,4.97091E0,3.4135501E0,1.2853218E0,4.679855E0,1.1189476E0,6.6636825E0,1.1075857E0,2.7275999E0,1.3611842E0,1.6678351E0,3.3030748E0,1.1929909E0,2.2205591E0,1.2622908E0,3.4175642E0,4.806423E0,1.8572593E0,1.3279334E0,1.3996663E0,1.6449786E0,1.6580962E0,1.0835112E0,3.7229118E0,2.200829E0,1.5220829E0,1.1027122E0,1.0981169E0],"tree_param":{"num_deleted":"0","num_feature":"30","num_nodes":"45","size_leaf_vector":"1"}},{"base_weights":[2.4338566E-2,-3.981594E-2,5.986538E-1,-8.816735E-2,7.021046E-2,8.159973E-2,1.0793481E-2,-3.3149906E-2,-6.807631E-2,-3.8335976E-1,4.9205244E-2,-1.4276403E-1,-6.416964E-2,4.6471164E-1,-8.0529325E-2,-3.7565567E-2,2.1462044E-2,7.732405E-1,-5.6886494E-2,-1.9341901E-1,4.8144174E-1,2.3912156E-2,8.9004725E-2,-5.338329E-1,-4.652755E-2,7.462054E-2,-1.16098E-2,-8.2050234E-2,3.274296E-2,-6.5850616E-2,9.087225E-2,2.4822184E-1,-6.510694E-2,-2.8717467E-1,5.6090033E-1,1.8545927E-2,-6.797932E-2,1.9570546E-1,6.7617434E-1,-9.285576E-3,3.8947713E-2,1.04778364E-1,1.3270153E-1,-9.730468E-3,2.9518655E-2],"categories":[],"categories_nodes":[],"categories_segments":[],"categories_sizes":[],"default_left":[0,0,0,0,0,0,0,0,0,0,0,0,0,0,0,0,0,0,0,0,0,0,0,0,0,0,0,0,0,0,0,0,0,0,0,0,0,0,0,0,0,0,0,0,0],"id":17,"left_children":[1,3,5,7,-1,-1,-1,9,-1,11,13,15,-1,17,19,-1,-1,21,-1,23,25,-1,-1,27,29,-1,-1,-1,-1,-1,31,33,-1,35,37,-1,-1,39,41,-1,-1,-1,43,-1,-1],"loss_changes":[1.3886669E0,1.2908412E0,3.155557E-1,1.0549827E0,0E0,0E0,0E0,9.2143023E-1,0E0,2.8577614E-1,1.4509453E0,4.4933698E-1,0E0,2.4766092E0,1.4149204E0,0E0,0E0,1.2048769E-1,0E0,8.783981E-1,6.83371E-1,0E0,0E0,1.5894251E0,1.2129797E0,0E0,0E0,0E0,0E0,0E0,1.5716622E0,1.9504555E0,0E0,9.8009044E-1,1.6599417E-1,0E0,0E0,2.099223E-1,8.665178E-1,0E0,0E0,0E0,1.4708063E-1,0E0,0E0],"parents":[2147483647,0,0,1,1,2,2,3,3,7,7,9,9,10,10,11,11,13,13,14,14,17,17,19,19,20,20,23,23,24,24,30,30,31,31,33,33,34,34,37,37,38,38,42,42],"right_children":[2,4,6,8,-1,-1,-1,10,-1,12,14,16,-1,18,20,-1,-1,22,-1,24,26,-1,-1,28,30,-1,-1,-1,-1,-1,32,34,-1,36,38,-1,-1,40,42,-1,-1,-1,44,-1,-1],"split_conditions":[5.894913E0,2.1405275E0,-4.334133E-8,1.9481019E0,7.021046E-2,8.159973E-2,1.0793481E-2,-8.0307513E-1,-6.807631E-2,-4.99404E-1,-3.5670555E-1,-1.9703914E-1,-6.416964E-2,3.0297616E0,3.4656086E0,-3.7565567E-2,2.1462044E-2,-4.334133E-8,-5.6886494E-2,-1.9703914E-1,2.5662178E-1,2.3912156E-2,8.9004725E-2,9.558452E-9,1.684558E-3,7.462054E-2,-1.16098E-2,-8.2050234E-2,3.274296E-2,-6.5850616E-2,1.4340628E0,2.1133557E-2,-6.510694E-2,-5.477402E-1,-5.249938E-1,1.8545927E-2,-6.797932E-2,6.0985404E-1,-4.334133E-8,-9.285576E-3,3.8947713E-2,1.04778364E-1,9.6308637E-1,-9.730468E-3,2.9518655E-2],"split_indices":[29,0,1,3,0,0,0,0,0,8,2,3,0,9,12,0,0,1,0,3,0,0,0,11,2,0,0,0,0,0,0,0,0,8,8,0,0,0,1,0,0,0,0,0,0],"split_type":[0,0,0,0,0,0,0,0,0,0,0,0,0,0,0,0,0,0,0,0,0,0,0,0,0,0,0,0,0,0,0,0,0,0,0,0,0,0,0,0,0,0,0,0,0],"sum_hessian":[3.604259E1,3.325813E1,2.7844632E0,3.2050537E1,1.2075896E0,1.4703655E0,1.3140976E0,3.0293945E1,1.7565932E0,5.0717416E0,2.5222204E1,3.4299586E0,1.6417828E0,5.387003E0,1.9835201E1,2.045725E0,1.3842334E0,4.342592E0,1.0444111E0,1.7063314E1,2.7718868E0,1.3260686E0,3.0165231E0,4.349457E0,1.2713858E1,1.748395E0,1.0234919E0,3.2987883E0,1.0506687E0,1.6357226E0,1.1078135E1,9.688796E0,1.3893389E0,3.6022546E0,6.0865417E0,1.873986E0,1.7282685E0,2.1075232E0,3.9790182E0,1.0558977E0,1.0516256E0,1.8120531E0,2.1669652E0,1.0631568E0,1.1038084E0],"tree_param":{"num_deleted":"0","num_feature":"30","num_nodes":"45","size_leaf_vector":"1"}},{"base_weights":[2.2132838E-2,1.9125257E-1,-1.6997033E-1,6.5261744E-2,9.989944E-2,-3.9901022E-2,-7.251985E-2,-3.2153302E-1,3.236119E-1,4.2043734E-1,-1.5510409E-1,-5.269791E-1,1.5105414E-1,5.1067215E-1,-3.9162688E-2,-1.2911798E-2,7.901839E-2,-3.4833467E-1,2.4210131E-1,-1.9360326E-2,-5.899097E-1,3.1006956E-2,-8.539456E-3,1.7633738E-1,8.181772E-1,-4.6635428E-1,2.9979495E-2,-3.9075956E-2,7.366751E-2,-7.080782E-2,-1.6896179E-2,-1.4522259E-1,5.452443E-2,-1.150226E-2,1.14357375E-1,-8.0475524E-2,-1.1913268E-1,3.2823265E-2,-6.5480545E-2,1.4754398E-1,-5.696228E-2,-3.8999226E-2,8.599089E-2],"categories":[],"categories_nodes":[],"categories_segments":[],"categories_sizes":[],"default_left":[0,0,0,0,0,0,0,0,0,0,0,0,0,0,0,0,0,0,0,0,0,0,0,0,0,0,0,0,0,0,0,0,0,0,0,0,0,0,0,0,0,0,0],"id":18,"left_children":[1,3,5,7,-1,9,-1,11,13,15,17,19,21,23,-1,-1,-1,25,27,-1,29,-1,-1,31,33,35,-1,-1,-1,-1,-1,37,-1,-1,-1,-1,39,-1,-1,41,-1,-1,-1],"loss_changes":[1.2308116E0,1.978913E0,1.256407E0,1.9472933E0,0E0,8.860585E-1,0E0,8.4547776E-1,1.7462894E0,7.863279E-1,1.0905951E0,5.812049E-3,1.4556804E-1,8.4222484E-1,0E0,0E0,0E0,8.458257E-1,1.8154778E0,0E0,9.544444E-2,0E0,0E0,7.757388E-1,1.5658801E0,8.6756027E-1,0E0,0E0,0E0,0E0,0E0,1.1623614E0,0E0,0E0,0E0,0E0,7.112372E-1,0E0,0E0,1.8952591E0,0E0,0E0,0E0],"parents":[2147483647,0,0,1,1,2,2,3,3,5,5,7,7,8,8,9,9,10,10,11,11,12,12,13,13,17,17,18,18,20,20,23,23,24,24,25,25,31,31,36,36,39,39],"right_children":[2,4,6,8,-1,10,-1,12,14,16,18,20,22,24,-1,-1,-1,26,28,-1,30,-1,-1,32,34,36,-1,-1,-1,-1,-1,38,-1,-1,-1,-1,40,-1,-1,42,-1,-1,-1],"split_conditions":[-4.766576E-1,4.369146E-9,4.369146E-9,1.684558E-3,9.989944E-2,-4.4984284E-1,-7.251985E-2,8.9706147E-1,1.076855E0,-6.8533105E-1,1.9174075E0,-1.0385634E0,-1.9703914E-1,1.3887766E-1,-3.9162688E-2,-1.2911798E-2,7.901839E-2,3.4656086E0,1.1985745E0,-1.9360326E-2,-5.704867E-1,3.1006956E-2,-8.539456E-3,1.6112086E-8,3.6007467E-1,5.180079E-1,2.9979495E-2,-3.9075956E-2,7.366751E-2,-7.080782E-2,-1.6896179E-2,3.6007467E-1,5.452443E-2,-1.150226E-2,1.14357375E-1,-8.0475524E-2,3.6007467E-1,3.2823265E-2,-6.5480545E-2,2.2945171E-7,-5.696228E-2,-3.8999226E-2,8.599089E-2],"split_indices":[8,22,17,2,0,0,0,1,2,0,8,0,3,0,0,0,0,12,0,0,8,0,0,7,2,3,0,0,0,0,0,2,0,0,0,0,2,0,0,2,0,0,0],"split_type":[0,0,0,0,0,0,0,0,0,0,0,0,0,0,0,0,0,0,0,0,0,0,0,0,0,0,0,0,0,0,0,0,0,0,0,0,0,0,0,0,0,0,0],"sum_hessian":[3.588402E1,1.9085958E1,1.6798065E1,1.7445604E1,1.6403539E0,1.4478221E1,2.3198445E0,6.888206E0,1.0557398E1,2.3676858E0,1.2110536E1,4.720839E0,2.167367E0,8.595406E0,1.9619918E0,1.2140434E0,1.1536424E0,8.229919E0,3.8806155E0,1.3969464E0,3.3238928E0,1.1097095E0,1.0576574E0,4.87189E0,3.7235157E0,7.19942E0,1.0305E0,1.7943966E0,2.0862188E0,2.062737E0,1.2611557E0,2.9269445E0,1.9449456E0,1.1298246E0,2.5936913E0,2.9786954E0,4.2207246E0,1.7017355E0,1.225209E0,3.0736794E0,1.1470451E0,2.0097222E0,1.0639573E0],"tree_param":{"num_deleted":"0","num_feature":"30","num_nodes":"43","size_leaf_vector":"1"}},{"base_weights":[2.0593625E-2,-3.9025623E-2,5.39267E-1,-8.409608E-2,6.1754238E-2,7.526738E-2,5.907684E-3,-3.2547023E-2,-6.586104E-2,-3.609819E-1,4.283534E-2,-1.3242926E-1,-6.1693113E-2,4.2788726E-1,-8.136592E-2,-3.5729636E-2,2.003534E-2,6.582318E-1,-2.3397671E-2,-1.8506828E-1,4.2335856E-1,3.215546E-1,8.760199E-2,-5.1205504E-1,-4.9030177E-2,6.6370256E-2,-1.17785605E-2,-2.1828046E-2,7.641131E-2,-8.009876E-2,3.0075703E-2,-6.34748E-2,7.6183386E-2,2.2488813E-1,-6.418805E-2,-2.8430545E-1,5.1171565E-1,1.5118258E-2,-6.607678E-2,1.5880913E-1,6.318632E-1,4.1024055E-2,-1.494244E-2,9.517632E-2,1.3315848E-1,-7.5863795E-3,2.6912136E-2],"categories":[],"categories_nodes":[],"categories_segments":[],"categories_sizes":[],"default_left":[0,0,0,0,0,0,0,0,0,0,0,0,0,0,0,0,0,0,0,0,0,0,0,0,0,0,0,0,0,0,0,0,0,0,0,0,0,0,0,0,0,0,0,0,0,0,0],"id":19,"left_children":[1,3,5,7,-1,-1,-1,9,-1,11,13,15,-1,17,19,-1,-1,21,-1,23,25,27,-1,29,31,-1,-1,-1,-1,-1,-1,-1,33,35,-1,37,39,-1,-1,41,43,-1,-1,-1,45,-1,-1],"loss_changes":[1.1533403E0,1.0513731E0,3.4929705E-1,9.406241E-1,0E0,0E0,0E0,7.79552E-1,0E0,2.6152086E-1,1.2779903E0,3.988127E-1,0E0,1.1449234E0,1.151092E0,0E0,0E0,9.1080666E-2,0E0,7.6213706E-1,5.7207346E-1,1.0213227E0,0E0,1.437162E0,1.0460714E0,0E0,0E0,0E0,0E0,0E0,0E0,0E0,1.4364702E0,1.7177657E0,0E0,8.4123373E-1,2.0678234E-1,0E0,0E0,3.0739367E-1,6.817951E-1,0E0,0E0,0E0,1.09743536E-1,0E0,0E0],"parents":[2147483647,0,0,1,1,2,2,3,3,7,7,9,9,10,10,11,11,13,13,14,14,17,17,19,19,20,20,21,21,23,23,24,24,32,32,33,33,35,35,36,36,39,39,40,40,44,44],"right_children":[2,4,6,8,-1,-1,-1,10,-1,12,14,16,-1,18,20,-1,-1,22,-1,24,26,28,-1,30,32,-1,-1,-1,-1,-1,-1,-1,34,36,-1,38,40,-1,-1,42,44,-1,-1,-1,46,-1,-1],"split_conditions":[5.894913E0,2.1405275E0,3.7436587E-1,1.9481019E0,6.1754238E-2,7.526738E-2,5.907684E-3,-8.0307513E-1,-6.586104E-2,-4.99404E-1,-3.5670555E-1,-1.9703914E-1,-6.1693113E-2,9.214334E-9,3.4656086E0,-3.5729636E-2,2.003534E-2,8.9706147E-1,-2.3397671E-2,-1.9703914E-1,2.5662178E-1,-4.2832133E-1,8.760199E-2,9.558452E-9,1.684558E-3,6.6370256E-2,-1.17785605E-2,-2.1828046E-2,7.641131E-2,-8.009876E-2,3.0075703E-2,-6.34748E-2,1.4340628E0,2.1133557E-2,-6.418805E-2,-5.477402E-1,-5.249938E-1,1.5118258E-2,-6.607678E-2,-1.9869522E-9,-4.334133E-8,4.1024055E-2,-1.494244E-2,9.517632E-2,9.6308637E-1,-7.5863795E-3,2.6912136E-2],"split_indices":[29,0,0,3,0,0,0,0,0,8,2,3,0,9,12,0,0,1,0,3,0,8,0,11,2,0,0,0,0,0,0,0,0,0,0,8,8,0,0,3,1,0,0,0,0,0,0],"split_type":[0,0,0,0,0,0,0,0,0,0,0,0,0,0,0,0,0,0,0,0,0,0,0,0,0,0,0,0,0,0,0,0,0,0,0,0,0,0,0,0,0,0,0,0,0,0,0],"sum_hessian":[3.5616695E1,3.2774204E1,2.8424933E0,3.1484827E1,1.289377E0,1.5750555E0,1.2674379E0,2.9862064E1,1.6227618E0,4.8672347E0,2.499483E1,3.372832E0,1.4944028E0,5.499629E0,1.9495201E1,1.96881E0,1.4040221E0,4.0838413E0,1.4157873E0,1.6697754E1,2.7974474E0,2.5768154E0,1.5070262E0,4.0937624E0,1.2603991E1,1.7802751E0,1.0171723E0,1.389127E0,1.1876884E0,3.0309057E0,1.0628569E0,1.5031779E0,1.1100813E1,9.765315E0,1.3354982E0,3.5218704E0,6.2434444E0,1.9103768E0,1.6114936E0,2.1754196E0,4.068025E0,1.0158403E0,1.1595792E0,1.9248421E0,2.143183E0,1.0188624E0,1.1243205E0],"tree_param":{"num_deleted":"0","num_feature":"30","num_nodes":"47","size_leaf_vector":"1"}},{"base_weights":[1.9768147E-2,8.346052E-2,-4.4969946E-1,2.823635E-1,-1.4069857E-1,-7.479941E-2,9.100513E-3,1.3329825E-1,1.1743837E-1,2.1458266E-2,-6.0131747E-1,-3.0040857E-1,4.6113643E-1,1.3291349E-1,-5.949397E-2,-1.7775131E-2,-7.0187904E-2,-4.9761596E-1,1.3019235E-1,1.5985359E-1,7.331678E-1,-1.8267828E-1,3.6056772E-1,-5.6124765E-1,-1.6392337E-2,2.8592272E-2,-9.299938E-3,4.6238878E-1,-2.1943875E-1,-1.04784705E-2,1.0111719E-1,4.846838E-1,-7.620387E-2,-5.7342596E-2,6.3626254E-1,-1.754024E-2,-6.8388686E-2,8.190181E-2,-1.9871099E-2,-6.0284246E-2,2.5303168E-2,-6.7780237E-3,7.943271E-2,9.517289E-2,3.302272E-1,-3.1907797E-2,7.986114E-2],"categories":[],"categories_nodes":[],"categories_segments":[],"categories_sizes":[],"default_left":[0,0,0,0,0,0,0,0,0,0,0,0,0,0,0,0,0,0,0,0,0,0,0,0,0,0,0,0,0,0,0,0,0,0,0,0,0,0,0,0,0,0,0,0,0,0,0],"id":20,"left_children":[1,3,5,7,9,-1,-1,11,-1,13,15,17,19,21,-1,-1,-1,23,25,27,29,31,33,35,-1,-1,-1,37,39,-1,-1,41,-1,-1,43,-1,-1,-1,-1,-1,-1,-1,-1,-1,45,-1,-1],"loss_changes":[1.1263685E0,1.5069371E0,7.949439E-1,2.206128E0,1.2183578E0,0E0,0E0,2.4636135E0,0E0,9.65469E-1,5.5698395E-2,7.1399075E-1,6.783984E-1,9.0961933E-1,0E0,0E0,0E0,2.3741841E-2,1.3761058E-1,7.7674854E-1,1.2293751E0,2.5288153E0,2.208208E0,7.715273E-2,0E0,0E0,0E0,1.0104527E0,7.483923E-1,0E0,0E0,6.023996E-1,0E0,0E0,2.650981E-1,0E0,0E0,0E0,0E0,0E0,0E0,0E0,0E0,0E0,1.6469485E0,0E0,0E0],"parents":[2147483647,0,0,1,1,2,2,3,3,4,4,7,7,9,9,10,10,11,11,12,12,13,13,17,17,18,18,19,19,20,20,21,21,22,22,23,23,27,27,28,28,31,31,34,34,44,44],"right_children":[2,4,6,8,10,-1,-1,12,-1,14,16,18,20,22,-1,-1,-1,24,26,28,30,32,34,36,-1,-1,-1,38,40,-1,-1,42,-1,-1,44,-1,-1,-1,-1,-1,-1,-1,-1,-1,46,-1,-1],"split_conditions":[1.076855E0,-4.766576E-1,-5.249938E-1,4.369146E-9,9.558452E-9,-7.479941E-2,9.100513E-3,1.684558E-3,1.1743837E-1,1.9481019E0,9.214334E-9,8.9706147E-1,1.3887766E-1,1.3887766E-1,-5.949397E-2,-1.7775131E-2,-7.0187904E-2,-9.6610546E-2,-1.9703914E-1,-4.4984284E-1,3.6007467E-1,-4.4984284E-1,-1.9869522E-9,-1.0385634E0,-1.6392337E-2,2.8592272E-2,-9.299938E-3,3.6007467E-1,1.6112086E-8,-1.04784705E-2,1.0111719E-1,-6.8533105E-1,-7.620387E-2,-5.7342596E-2,4.9210995E-1,-1.754024E-2,-6.8388686E-2,8.190181E-2,-1.9871099E-2,-6.0284246E-2,2.5303168E-2,-6.7780237E-3,7.943271E-2,9.517289E-2,2.2017384E0,-3.1907797E-2,7.986114E-2],"split_indices":[2,8,8,22,11,0,0,2,0,3,9,1,0,0,0,0,0,0,3,0,2,0,3,0,0,0,0,2,7,0,0,0,0,0,0,0,0,0,0,0,0,0,0,0,8,0,0],"split_type":[0,0,0,0,0,0,0,0,0,0,0,0,0,0,0,0,0,0,0,0,0,0,0,0,0,0,0,0,0,0,0,0,0,0,0,0,0,0,0,0,0,0,0,0,0,0,0],"sum_hessian":[3.54141E1,3.1907457E1,3.5066414E0,1.676856E1,1.5138896E1,2.012836E0,1.4938056E0,1.5352451E1,1.41611E0,1.1902234E1,3.2366624E0,6.6451087E0,8.707342E0,1.0743921E1,1.1583127E0,1.1520027E0,2.0846596E0,4.451E0,2.1941085E0,4.8848524E0,3.82249E0,4.58517E0,6.158752E0,3.1654518E0,1.2855483E0,1.1268171E0,1.0672914E0,2.595511E0,2.2893417E0,1.1074691E0,2.715021E0,2.2066998E0,2.3784697E0,1.1574923E0,5.00126E0,1.3495988E0,1.815853E0,1.5308331E0,1.0646778E0,1.111465E0,1.1778766E0,1.0731294E0,1.1335703E0,1.4237592E0,3.5775003E0,1.632789E0,1.9447113E0],"tree_param":{"num_deleted":"0","num_feature":"30","num_nodes":"47","size_leaf_vector":"1"}},{"base_weights":[1.715868E-2,1.7009467E-1,-1.5977013E-1,5.8551624E-2,8.391918E-2,-4.4619817E-2,-6.905057E-2,-6.742713E-2,1.7541936E-1,3.7102854E-1,-1.5296401E-1,2.5926247E-1,-3.3369496E-2,-9.917192E-3,6.46831E-2,-3.2388535E-1,1.8140456E-1,-5.765405E-2,4.200321E-1,-4.4151127E-1,2.973701E-2,-3.920027E-2,6.197775E-1,3.4618428E-1,-6.685441E-2,5.385176E-1,-6.240492E-3,-7.80746E-2,-1.1083723E-1,7.58596E-2,2.0843728E-2,-8.150171E-3,8.338799E-2,2.661347E-1,7.4819076E-1,-5.5842973E-2,1.4132662E-1,-7.239461E-2,7.504019E-2,1.00686036E-1,1.0788904E-2,8.0975436E-2,-3.7986867E-2,-6.1619848E-2,5.0428834E-2],"categories":[],"categories_nodes":[],"categories_segments":[],"categories_sizes":[],"default_left":[0,0,0,0,0,0,0,0,0,0,0,0,0,0,0,0,0,0,0,0,0,0,0,0,0,0,0,0,0,0,0,0,0,0,0,0,0,0,0,0,0,0,0,0,0],"id":21,"left_children":[1,3,5,7,-1,9,-1,-1,11,13,15,17,-1,-1,-1,19,21,23,25,27,-1,-1,29,31,-1,33,-1,-1,35,-1,-1,-1,-1,37,39,-1,41,43,-1,-1,-1,-1,-1,-1,-1],"loss_changes":[1.005731E0,1.4346879E0,1.0253967E0,1.6697749E0,0E0,7.4442655E-1,0E0,0E0,7.873138E-1,5.114646E-1,7.914871E-1,7.7109987E-1,0E0,0E0,0E0,7.775132E-1,1.4942279E0,1.6654913E0,5.964246E-1,7.92683E-1,0E0,0E0,2.509451E-2,9.3531406E-1,0E0,2.5825906E-1,0E0,0E0,6.584294E-1,0E0,0E0,0E0,0E0,8.7982893E-1,5.494206E-1,0E0,1.7297758E0,1.5261666E0,0E0,0E0,0E0,0E0,0E0,0E0,0E0],"parents":[2147483647,0,0,1,1,2,2,3,3,5,5,8,8,9,9,10,10,11,11,15,15,16,16,17,17,18,18,19,19,22,22,23,23,25,25,28,28,33,33,34,34,36,36,37,37],"right_children":[2,4,6,8,-1,10,-1,-1,12,14,16,18,-1,-1,-1,20,22,24,26,28,-1,-1,30,32,-1,34,-1,-1,36,-1,-1,-1,-1,38,40,-1,42,44,-1,-1,-1,-1,-1,-1,-1],"split_conditions":[-4.766576E-1,4.369146E-9,4.369146E-9,-7.150957E-1,8.391918E-2,-4.4984284E-1,-6.905057E-2,-6.742713E-2,1.076855E0,-6.8533105E-1,1.9174075E0,1.684558E-3,-3.3369496E-2,-9.917192E-3,6.46831E-2,6.870827E-9,1.1985745E0,-3.5670555E-1,8.9706147E-1,5.180079E-1,2.973701E-2,-3.920027E-2,3.623392E0,8.9706147E-1,-6.685441E-2,2.87792E-1,-6.240492E-3,-7.80746E-2,1.3887766E-1,7.58596E-2,2.0843728E-2,-8.150171E-3,8.338799E-2,9.558452E-9,3.6007467E-1,-5.5842973E-2,4.9210995E-1,-1.9869522E-9,7.504019E-2,1.00686036E-1,1.0788904E-2,8.0975436E-2,-3.7986867E-2,-6.1619848E-2,5.0428834E-2],"split_indices":[8,22,17,2,0,0,0,0,2,0,8,2,0,0,0,16,0,2,1,3,0,0,8,1,0,1,0,0,0,0,0,0,0,11,2,0,0,3,0,0,0,0,0,0,0],"split_type":[0,0,0,0,0,0,0,0,0,0,0,0,0,0,0,0,0,0,0,0,0,0,0,0,0,0,0,0,0,0,0,0,0,0,0,0,0,0,0,0,0,0,0,0,0],"sum_hessian":[3.5164036E1,1.8881569E1,1.6282467E1,1.7115763E1,1.765806E0,1.4270384E1,2.0120826E0,1.6981204E0,1.5417643E1,2.4493268E0,1.1821057E1,1.3658981E1,1.7586614E0,1.1423022E0,1.3070245E0,7.8431673E0,3.9778905E0,4.8129196E0,8.846062E0,6.837843E0,1.0053242E0,1.7693268E0,2.2085636E0,3.1583529E0,1.6545668E0,7.0085363E0,1.8375254E0,2.7033908E0,4.134452E0,1.0200973E0,1.1884664E0,2.1264453E0,1.0319077E0,4.0354433E0,2.973093E0,1.0522141E0,3.082238E0,2.8756871E0,1.1597562E0,1.7098631E0,1.26323E0,1.1078206E0,1.9744172E0,1.4447687E0,1.4309185E0],"tree_param":{"num_deleted":"0","num_feature":"30","num_nodes":"45","size_leaf_vector":"1"}},{"base_weights":[1.8399784E-2,-3.758874E-2,4.9268955E-1,-8.962597E-2,5.028984E-2,6.968336E-2,3.7047379E-3,-3.2106526E-2,-6.807988E-2,-1.11772925E-1,3.7752303E-1,3.4542866E-2,-4.480785E-1,-1.2808748E-1,9.9946566E-2,-1.5721834E-1,7.894054E-1,-1.2392408E-1,-7.8066304E-2,-4.1630656E-2,2.9850194E-2,-2.83687E-1,3.8500875E-2,-9.174017E-3,1.2811637E-1,1.5676431E-1,-5.691404E-2,-6.807979E-2,-1.6284661E-1,-1.0264577E-2,3.0250425E-2,3.8681975E-1,-4.0656686E-1,7.774907E-2,-2.0672165E-2,9.6074365E-2,-6.127971E-1,-1.6162934E-2,3.3173285E-2,-1.0851991E-2,-7.0395045E-2],"categories":[],"categories_nodes":[],"categories_segments":[],"categories_sizes":[],"default_left":[0,0,0,0,0,0,0,0,0,0,0,0,0,0,0,0,0,0,0,0,0,0,0,0,0,0,0,0,0,0,0,0,0,0,0,0,0,0,0,0,0],"id":22,"left_children":[1,3,5,7,-1,-1,-1,9,-1,11,13,15,17,19,-1,21,23,25,-1,-1,-1,27,-1,-1,-1,29,-1,-1,31,-1,-1,33,35,-1,-1,37,39,-1,-1,-1,-1],"loss_changes":[9.693273E-1,9.719236E-1,3.3242363E-1,1.0291617E0,0E0,0E0,0E0,9.956753E-1,0E0,1.257064E0,1.6957937E0,2.8036184E0,7.356621E-1,5.713668E-1,0E0,1.1786425E0,1.8143353E0,7.2640485E-1,0E0,0E0,0E0,5.2358484E-1,0E0,0E0,0E0,1.7892224E-1,0E0,0E0,1.6913139E0,0E0,0E0,1.0952233E0,9.317936E-1,0E0,0E0,2.5489962E-1,2.043078E-1,0E0,0E0,0E0,0E0],"parents":[2147483647,0,0,1,1,2,2,3,3,7,7,9,9,10,10,11,11,12,12,13,13,15,15,16,16,17,17,21,21,25,25,28,28,31,31,32,32,35,35,36,36],"right_children":[2,4,6,8,-1,-1,-1,10,-1,12,14,16,18,20,-1,22,24,26,-1,-1,-1,28,-1,-1,-1,30,-1,-1,32,-1,-1,34,36,-1,-1,38,40,-1,-1,-1,-1],"split_conditions":[5.894913E0,2.1650193E0,3.7436587E-1,1.9481019E0,5.028984E-2,6.968336E-2,3.7047379E-3,1.2330549E0,-6.807988E-2,-4.8985593E-9,8.9706147E-1,6.870827E-9,-4.334133E-8,1.9174075E0,9.9946566E-2,7.275982E-1,-5.704867E-1,9.558452E-9,-7.8066304E-2,-4.1630656E-2,2.9850194E-2,-7.150957E-1,3.8500875E-2,-9.174017E-3,1.2811637E-1,1.3887766E-1,-5.691404E-2,-6.807979E-2,-3.5670555E-1,-1.0264577E-2,3.0250425E-2,-1.9703914E-1,-6.8533105E-1,7.774907E-2,-2.0672165E-2,-5.704867E-1,-3.2147753E-1,-1.6162934E-2,3.3173285E-2,-1.0851991E-2,-7.0395045E-2],"split_indices":[29,5,0,3,0,0,0,3,0,8,1,16,1,8,0,0,8,11,0,0,0,2,0,0,0,0,0,0,2,0,0,3,0,0,0,8,1,0,0,0,0],"split_type":[0,0,0,0,0,0,0,0,0,0,0,0,0,0,0,0,0,0,0,0,0,0,0,0,0,0,0,0,0,0,0,0,0,0,0,0,0,0,0,0,0],"sum_hessian":[3.4805515E1,3.1954165E1,2.8513489E0,2.9908773E1,2.0453928E0,1.603555E0,1.2477938E0,2.821759E1,1.691182E0,2.4231993E1,3.9855986E0,1.7510862E1,6.721129E0,2.636389E0,1.3492094E0,1.4594963E1,2.9158998E0,4.098816E0,2.622313E0,1.5877519E0,1.0486373E0,1.222129E1,2.3736737E0,1.335808E0,1.5800917E0,2.9112797E0,1.187536E0,1.7701814E0,1.0451108E1,1.1536069E0,1.7576728E0,3.030108E0,7.4210005E0,1.6404439E0,1.389664E0,2.3143694E0,5.106631E0,1.2555277E0,1.0588416E0,1.1171069E0,3.9895241E0],"tree_param":{"num_deleted":"0","num_feature":"30","num_nodes":"41","size_leaf_vector":"1"}},{"base_weights":[1.8613612E-2,-2.9042404E-2,8.269919E-2,4.9039375E-2,-6.373243E-1,-2.5915466E-2,6.6057736E-1,-2.0395737E-2,-7.44159E-2,1.8455893E-2,-5.736902E-2,9.354412E-2,9.387753E-3,-2.5410503E-1,1.4580654E-1,1.693544E-2,-7.329442E-2,8.145591E-2,4.6174172E-2,-2.0227501E-1,5.0340798E-2,-5.330951E-2,1.6974811E-1,-6.1018493E-2,4.6644572E-2,-2.060139E-1,3.7301174E-1,2.6023481E-2,-1.3238373E-2,6.2155086E-3,-5.819444E-2,9.460014E-2,1.2895645E-1,-3.2144433E-1,4.454681E-2,-4.7807146E-2,7.0049636E-2,6.3180956E-3,-5.972916E-2,2.0480017E-1,-6.665209E-2,5.0580233E-1,-5.849391E-2,8.9445025E-2,6.704381E-2,3.9014068E-2,-2.36124E-2],"categories":[],"categories_nodes":[],"categories_segments":[],"categories_sizes":[],"default_left":[0,0,0,0,0,0,0,0,0,0,0,0,0,0,0,0,0,0,0,0,0,0,0,0,0,0,0,0,0,0,0,0,0,0,0,0,0,0,0,0,0,0,0,0,0,0,0],"id":23,"left_children":[1,3,-1,5,7,9,11,-1,-1,13,-1,-1,-1,15,17,19,-1,-1,21,23,-1,-1,25,-1,27,29,31,-1,-1,33,-1,-1,35,37,-1,39,-1,-1,-1,41,-1,43,-1,-1,45,-1,-1],"loss_changes":[1.393774E0,1.6718751E0,0E0,1.4629073E0,3.346646E-2,7.169019E-1,4.5449674E-1,0E0,0E0,1.003785E0,0E0,0E0,0E0,1.2108068E0,1.2694852E0,8.348308E-1,0E0,0E0,1.3885579E0,5.820203E-1,0E0,0E0,1.2762989E0,0E0,1.994398E-1,4.9484506E-1,1.3529127E0,0E0,0E0,8.5199285E-1,0E0,0E0,8.977179E-1,3.9863387E-1,0E0,1.3039705E0,0E0,0E0,0E0,1.7385832E0,0E0,7.808087E-1,0E0,0E0,4.248679E-1,0E0,0E0],"parents":[2147483647,0,0,1,1,3,3,4,4,5,5,6,6,9,9,13,13,14,14,15,15,18,18,19,19,22,22,24,24,25,25,26,26,29,29,32,32,33,33,35,35,39,39,41,41,44,44],"right_children":[2,4,-1,6,8,10,12,-1,-1,14,-1,-1,-1,16,18,20,-1,-1,22,24,-1,-1,26,-1,28,30,32,-1,-1,34,-1,-1,36,38,-1,40,-1,-1,-1,42,-1,44,-1,-1,46,-1,-1],"split_conditions":[2.2582715E0,1.4340628E0,8.269919E-2,5.894913E0,5.180079E-1,1.9481019E0,-4.334133E-8,-2.0395737E-2,-7.44159E-2,-5.6758696E-1,-5.736902E-2,9.354412E-2,9.387753E-3,-4.99404E-1,-4.4984284E-1,-5.704867E-1,-7.329442E-2,8.145591E-2,-1.9703914E-1,-3.2147753E-1,5.0340798E-2,-5.330951E-2,1.3887766E-1,-6.1018493E-2,-4.334133E-8,-4.8985593E-9,2.5662178E-1,2.6023481E-2,-1.3238373E-2,-5.477402E-1,-5.819444E-2,9.460014E-2,1.1985745E0,-9.6610546E-2,4.454681E-2,1.2065806E0,7.0049636E-2,6.3180956E-3,-5.972916E-2,1.2330549E0,-6.665209E-2,2.87792E-1,-5.849391E-2,8.9445025E-2,-1.9869522E-9,3.9014068E-2,-2.36124E-2],"split_indices":[0,0,0,29,3,3,1,0,0,0,0,0,0,8,0,8,0,0,3,1,0,0,0,0,1,8,0,0,0,8,0,0,0,0,0,8,0,0,0,3,0,1,0,0,3,0,0],"split_type":[0,0,0,0,0,0,0,0,0,0,0,0,0,0,0,0,0,0,0,0,0,0,0,0,0,0,0,0,0,0,0,0,0,0,0,0,0,0,0,0,0,0,0,0,0,0,0],"sum_hessian":[3.455584E1,3.3542496E1,1.0133448E0,3.0541441E1,3.001055E0,2.8059832E1,2.4816084E0,1.1688391E0,1.8322159E0,2.685112E1,1.2087121E0,1.2329259E0,1.2486825E0,8.233703E0,1.8617418E1,5.8736396E0,2.3600626E0,1.483593E0,1.7133825E1,4.451803E0,1.4218364E0,2.4298065E0,1.4704019E1,1.1370924E0,3.314711E0,5.157011E0,9.547007E0,1.3046268E0,2.0100842E0,3.9247706E0,1.2322404E0,1.9926093E0,7.5543976E0,2.4015439E0,1.5232267E0,6.469798E0,1.0845996E0,1.3249993E0,1.0765446E0,5.069161E0,1.4006374E0,3.9305854E0,1.1385753E0,1.5335704E0,2.397015E0,1.021493E0,1.3755221E0],"tree_param":{"num_deleted":"0","num_feature":"30","num_nodes":"47","size_leaf_vector":"1"}},{"base_weights":[1.7530521E-2,-2.7988054E-2,7.66493E-2,4.5668364E-2,-6.1622363E-1,-2.5517015E-2,6.15611E-1,-1.9448506E-2,-7.229943E-2,1.6687697E-2,-5.5867005E-2,8.6750224E-2,8.845446E-3,-2.4132328E-1,1.3512677E-1,1.5054704E-2,-7.160015E-2,7.4318744E-2,4.175722E-2,-1.9282383E-1,4.6442132E-2,-5.1097155E-1,1.5589695E-1,-5.9350695E-2,4.471317E-2,-1.6513743E-2,-6.052337E-2,-1.9891036E-1,3.4420687E-1,2.4221174E-2,-1.243681E-2,3.2871447E-3,-5.6665804E-2,8.555816E-2,1.2026638E-1,-3.0929932E-1,4.105566E-2,-4.7103137E-2,6.529823E-2,5.9445533E-3,-5.8031548E-2,1.8886223E-1,-6.4749174E-2,4.6453655E-1,-5.6887805E-2,8.031603E-2,6.455952E-2,3.7440196E-2,-2.2650208E-2],"categories":[],"categories_nodes":[],"categories_segments":[],"categories_sizes":[],"default_left":[0,0,0,0,0,0,0,0,0,0,0,0,0,0,0,0,0,0,0,0,0,0,0,0,0,0,0,0,0,0,0,0,0,0,0,0,0,0,0,0,0,0,0,0,0,0,0,0,0],"id":24,"left_children":[1,3,-1,5,7,9,11,-1,-1,13,-1,-1,-1,15,17,19,-1,-1,21,23,-1,25,27,-1,29,-1,-1,31,33,-1,-1,35,-1,-1,37,39,-1,41,-1,-1,-1,43,-1,45,-1,-1,47,-1,-1],"loss_changes":[1.2264975E0,1.5136962E0,0E0,1.289749E0,3.4303784E-2,6.590748E-1,3.91528E-1,0E0,0E0,8.7995857E-1,0E0,0E0,0E0,1.1161504E0,1.0843389E0,7.319597E-1,0E0,0E0,1.2209352E0,5.413052E-1,0E0,8.609474E-3,1.1214573E0,0E0,1.7456567E-1,0E0,0E0,4.5530403E-1,1.1180862E0,0E0,0E0,7.5447285E-1,0E0,0E0,7.9561394E-1,3.7017694E-1,0E0,1.1791948E0,0E0,0E0,0E0,1.5446883E0,0E0,6.314516E-1,0E0,0E0,3.9145926E-1,0E0,0E0],"parents":[2147483647,0,0,1,1,3,3,4,4,5,5,6,6,9,9,13,13,14,14,15,15,18,18,19,19,21,21,22,22,24,24,27,27,28,28,31,31,34,34,35,35,37,37,41,41,43,43,46,46],"right_children":[2,4,-1,6,8,10,12,-1,-1,14,-1,-1,-1,16,18,20,-1,-1,22,24,-1,26,28,-1,30,-1,-1,32,34,-1,-1,36,-1,-1,38,40,-1,42,-1,-1,-1,44,-1,46,-1,-1,48,-1,-1],"split_conditions":[2.2582715E0,1.4340628E0,7.66493E-2,5.894913E0,5.180079E-1,1.9481019E0,-4.334133E-8,-1.9448506E-2,-7.229943E-2,-5.6758696E-1,-5.5867005E-2,8.6750224E-2,8.845446E-3,-4.99404E-1,-4.4984284E-1,-5.704867E-1,-7.160015E-2,7.4318744E-2,-1.9703914E-1,-3.2147753E-1,4.6442132E-2,-9.6610546E-2,1.3887766E-1,-5.9350695E-2,-4.334133E-8,-1.6513743E-2,-6.052337E-2,-4.8985593E-9,2.5662178E-1,2.4221174E-2,-1.243681E-2,-5.477402E-1,-5.6665804E-2,8.555816E-2,1.1985745E0,-9.6610546E-2,4.105566E-2,1.2065806E0,6.529823E-2,5.9445533E-3,-5.8031548E-2,1.2330549E0,-6.4749174E-2,2.87792E-1,-5.6887805E-2,8.031603E-2,-5.704867E-1,3.7440196E-2,-2.2650208E-2],"split_indices":[0,0,0,29,3,3,1,0,0,0,0,0,0,8,0,8,0,0,3,1,0,0,0,0,1,0,0,8,0,0,0,8,0,0,0,0,0,8,0,0,0,3,0,1,0,0,8,0,0],"split_type":[0,0,0,0,0,0,0,0,0,0,0,0,0,0,0,0,0,0,0,0,0,0,0,0,0,0,0,0,0,0,0,0,0,0,0,0,0,0,0,0,0,0,0,0,0,0,0,0,0],"sum_hessian":[3.434716E1,3.328677E1,1.0603894E0,3.0402287E1,2.8844843E0,2.7875845E1,2.5264416E0,1.1527405E0,1.7317439E0,2.6728685E1,1.1471587E0,1.272688E0,1.2537537E0,8.082976E0,1.864571E1,5.8770256E0,2.2059505E0,1.5555699E0,1.709014E1,4.4085255E0,1.4685001E0,2.3300426E0,1.47600975E1,1.08304E0,3.3254855E0,1.0884761E0,1.2415664E0,5.098112E0,9.661985E0,1.3343527E0,1.9911326E0,3.9289382E0,1.169174E0,2.0835538E0,7.578432E0,2.3589535E0,1.5699847E0,6.4603033E0,1.1181288E0,1.3300047E0,1.0289488E0,5.1296687E0,1.3306344E0,4.044998E0,1.0846703E0,1.6446276E0,2.4003708E0,1.0239829E0,1.376388E0],"tree_param":{"num_deleted":"0","num_feature":"30","num_nodes":"49","size_leaf_vector":"1"}},{"base_weights":[1.4942046E-2,-2.8499214E-2,7.1108796E-2,4.0871177E-2,-5.958743E-1,-2.6774023E-2,5.7426167E-1,-1.8544996E-2,-7.025597E-2,1.3318609E-2,-5.440675E-2,8.058788E-2,8.334829E-3,-2.7006388E-1,1.0753812E-1,-4.6272853E-1,1.3800998E-1,4.6783522E-1,-3.564987E-2,-1.0074529E-2,-6.9325976E-2,-1.09645715E-2,3.1521264E-2,6.839088E-2,-1.9993193E-2,-1.2865123E-1,4.2638734E-2,-5.0570476E-1,1.3114795E-1,-6.643767E-1,8.933963E-3,-1.8602449E-1,3.3601415E-1,-2.3081332E-2,-7.701654E-2,-5.8960535E-2,1.528856E-1,-1.8748721E-2,5.334886E-1,3.856067E-2,-1.4214151E-2,7.725449E-2,1.5004064E-2],"categories":[],"categories_nodes":[],"categories_segments":[],"categories_sizes":[],"default_left":[0,0,0,0,0,0,0,0,0,0,0,0,0,0,0,0,0,0,0,0,0,0,0,0,0,0,0,0,0,0,0,0,0,0,0,0,0,0,0,0,0,0,0],"id":25,"left_children":[1,3,-1,5,7,9,11,-1,-1,13,-1,-1,-1,15,17,19,21,23,25,-1,-1,-1,-1,-1,-1,27,-1,29,31,33,-1,35,37,-1,-1,-1,39,-1,41,-1,-1,-1,-1],"loss_changes":[1.0838277E0,1.3651099E0,0E0,1.1443367E0,3.5020232E-2,6.029572E-1,3.3831036E-1,0E0,0E0,7.668563E-1,0E0,0E0,0E0,6.283533E-1,1.1234663E0,3.5632277E-1,1.6941872E-1,1.0272784E0,7.544692E-1,0E0,0E0,0E0,0E0,0E0,0E0,1.4692347E0,0E0,6.304157E-1,6.6506314E-1,4.668355E-2,0E0,6.759339E-1,7.193031E-1,0E0,0E0,0E0,2.691648E-1,0E0,3.066393E-1,0E0,0E0,0E0,0E0],"parents":[2147483647,0,0,1,1,3,3,4,4,5,5,6,6,9,9,13,13,14,14,15,15,16,16,17,17,18,18,25,25,27,27,28,28,29,29,31,31,32,32,36,36,38,38],"right_children":[2,4,-1,6,8,10,12,-1,-1,14,-1,-1,-1,16,18,20,22,24,26,-1,-1,-1,-1,-1,-1,28,-1,30,32,34,-1,36,38,-1,-1,-1,40,-1,42,-1,-1,-1,-1],"split_conditions":[2.2582715E0,1.4340628E0,7.1108796E-2,5.894913E0,5.180079E-1,1.9481019E0,-4.334133E-8,-1.8544996E-2,-7.025597E-2,-6.8533105E-1,-5.440675E-2,8.058788E-2,8.334829E-3,2.2945171E-7,-3.5670555E-1,-1.0385634E0,-5.960765E-1,9.214334E-9,3.4656086E0,-1.0074529E-2,-6.9325976E-2,-1.09645715E-2,3.1521264E-2,6.839088E-2,-1.9993193E-2,2.1133557E-2,4.2638734E-2,9.558452E-9,-5.221505E-1,-5.960765E-1,8.933963E-3,-4.334133E-8,-1.9869522E-9,-2.3081332E-2,-7.701654E-2,-5.8960535E-2,-1.9869522E-9,-1.8748721E-2,-4.334133E-8,3.856067E-2,-1.4214151E-2,7.725449E-2,1.5004064E-2],"split_indices":[0,0,0,29,3,3,1,0,0,0,0,0,0,2,2,0,8,9,12,0,0,0,0,0,0,0,0,11,8,8,0,1,3,0,0,0,3,0,1,0,0,0,0],"split_type":[0,0,0,0,0,0,0,0,0,0,0,0,0,0,0,0,0,0,0,0,0,0,0,0,0,0,0,0,0,0,0,0,0,0,0,0,0,0,0,0,0,0,0],"sum_hessian":[3.4169018E1,3.3064754E1,1.1042628E0,3.0289373E1,2.7753806E0,2.772328E1,2.5660946E0,1.1375301E0,1.6378505E0,2.6633327E1,1.0899526E0,1.3075777E0,1.2585168E0,6.1798787E0,2.045345E1,4.106932E0,2.0729465E0,5.172032E0,1.5281417E1,2.156998E0,1.9499344E0,1.0236083E0,1.0493383E0,3.8893557E0,1.282676E0,1.3321541E1,1.9598757E0,5.048294E0,8.273247E0,3.8935432E0,1.1547511E0,3.2828038E0,4.9904428E0,1.3877668E0,2.5057762E0,1.1607953E0,2.1220086E0,1.3807286E0,3.6097143E0,1.0146325E0,1.1073761E0,1.5984478E0,2.0112665E0],"tree_param":{"num_deleted":"0","num_feature":"30","num_nodes":"43","size_leaf_vector":"1"}},{"base_weights":[1.25188995E-2,-2.8884757E-2,6.602729E-2,2.702424E-2,-7.097121E-2,-4.0916733E-2,5.9392047E-1,9.2944466E-2,-2.1930365E-1,7.55818E-2,1.6360072E-2,-6.337033E-2,6.183648E-1,-3.302148E-1,3.28421E-2,5.2416272E-2,-6.5282494E-2,1.2920423E-2,8.133022E-2,-4.2371035E-1,2.7936494E-2,-1.1677523E-1,3.5416988E-1,-5.597096E-1,5.135497E-3,-5.654198E-2,1.5795115E-2,-1.3954116E-1,7.746472E-2,-6.060964E-1,-1.3960424E-2,1.7377144E-2,-1.7266234E-2,-3.7644E-2,1.7414516E-1,3.784646E-2,-5.7491392E-2,-6.7953813E-1,-1.404763E-2,3.9328885E-1,-2.0864705E-2,-1.7259274E-2,-7.9416685E-2,1.3769856E-1,6.0351886E-2,4.3201394E-2,-1.8854503E-2],"categories":[],"categories_nodes":[],"categories_segments":[],"categories_sizes":[],"default_left":[0,0,0,0,0,0,0,0,0,0,0,0,0,0,0,0,0,0,0,0,0,0,0,0,0,0,0,0,0,0,0,0,0,0,0,0,0,0,0,0,0,0,0,0,0,0,0],"id":26,"left_children":[1,3,-1,5,-1,7,9,11,13,-1,-1,15,17,19,-1,21,-1,-1,-1,23,-1,25,27,29,31,-1,33,35,-1,37,-1,-1,-1,-1,39,-1,-1,41,-1,43,-1,-1,-1,45,-1,-1,-1],"loss_changes":[9.5793796E-1,1.3081115E0,0E0,1.2666388E0,0E0,7.3052466E-1,1.2133229E-1,1.4922653E0,9.0102875E-1,0E0,0E0,1.0267664E0,2.9060555E-1,7.65152E-1,0E0,7.091817E-1,0E0,0E0,0E0,5.999049E-1,0E0,5.5215585E-1,1.1351309E0,6.701803E-2,1.3361397E-1,0E0,5.6386393E-1,9.218698E-1,0E0,1.3392949E-1,0E0,0E0,0E0,0E0,6.1886764E-1,0E0,0E0,1.8449044E-1,0E0,1.541866E-1,0E0,0E0,0E0,3.9722538E-1,0E0,0E0,0E0],"parents":[2147483647,0,0,1,1,3,3,5,5,6,6,7,7,8,8,11,11,12,12,13,13,15,15,19,19,21,21,22,22,23,23,24,24,26,26,27,27,29,29,34,34,37,37,39,39,43,43],"right_children":[2,4,-1,6,-1,8,10,12,14,-1,-1,16,18,20,-1,22,-1,-1,-1,24,-1,26,28,30,32,-1,34,36,-1,38,-1,-1,-1,-1,40,-1,-1,42,-1,44,-1,-1,-1,46,-1,-1,-1],"split_conditions":[2.2582715E0,1.9313561E0,6.602729E-2,5.894913E0,-7.097121E-2,-3.5723865E-1,-5.704867E-1,-5.477402E-1,3.608346E-1,7.55818E-2,1.6360072E-2,1.076855E0,-3.3209875E-1,1.5063311E0,3.28421E-2,1.3887766E-1,-6.5282494E-2,1.2920423E-2,8.133022E-2,9.6308637E-1,2.7936494E-2,-7.150957E-1,3.6007467E-1,1.9174075E0,3.6007467E-1,-5.654198E-2,-3.2147753E-1,-3.5670555E-1,7.746472E-2,3.7436587E-1,-1.3960424E-2,1.7377144E-2,-1.7266234E-2,-3.7644E-2,-4.4984284E-1,3.784646E-2,-5.7491392E-2,-2.1507326E-1,-1.404763E-2,-6.8533105E-1,-2.0864705E-2,-1.7259274E-2,-7.9416685E-2,-4.334133E-8,6.0351886E-2,4.3201394E-2,-1.8854503E-2],"split_indices":[0,10,0,29,0,8,8,8,6,0,0,2,0,1,0,0,0,0,0,0,0,2,2,8,2,0,1,2,0,0,0,0,0,0,0,0,0,8,0,0,0,0,0,1,0,0,0],"split_type":[0,0,0,0,0,0,0,0,0,0,0,0,0,0,0,0,0,0,0,0,0,0,0,0,0,0,0,0,0,0,0,0,0,0,0,0,0,0,0,0,0,0,0,0,0,0,0],"sum_hessian":[3.4006992E1,3.2861904E1,1.1450857E0,3.1255533E1,1.6063725E0,2.8739058E1,2.5164747E0,1.669222E1,1.2046837E1,1.2789068E0,1.2375679E0,1.35426235E1,3.149597E0,1.034845E1,1.6983875E0,1.2080689E1,1.4619339E0,1.3713176E0,1.7782793E0,9.2366705E0,1.111779E0,8.1333685E0,3.9473214E0,6.7810516E0,2.4556193E0,1.1104224E0,7.022946E0,2.1228616E0,1.8244598E0,5.7080607E0,1.0729911E0,1.271903E0,1.1837162E0,1.623716E0,5.39923E0,1.0291235E0,1.0937382E0,4.5335608E0,1.1744999E0,3.416122E0,1.9831079E0,1.298152E0,3.2354085E0,2.2886505E0,1.1274714E0,1.032758E0,1.2558926E0],"tree_param":{"num_deleted":"0","num_feature":"30","num_nodes":"47","size_leaf_vector":"1"}},{"base_weights":[1.2770248E-2,7.0318244E-2,-4.1854945E-1,2.0879146E-2,7.8906424E-2,1.1860564E-2,-7.1487516E-2,7.720944E-2,-6.710229E-2,4.261553E-3,6.2620723E-1,1.5079576E-1,-1.7725925E-1,8.282321E-2,1.5375135E-2,-3.2240782E-2,5.8603287E-1,-2.886588E-1,3.363029E-2,7.798667E-2,-5.7134986E-2,5.940746E-3,8.039791E-1,-3.8452068E-1,2.9297883E-2,-2.8259316E-1,3.500621E-1,1.0345151E-1,1.7465072E-2,-5.358973E-1,8.7336525E-2,-4.8204365E-1,1.263611E-2,-1.2146925E-2,5.749127E-1,-5.821982E-1,-1.3307542E-2,2.889995E-2,-1.698636E-2,-1.1055093E-2,-6.167374E-2,7.8739874E-2,8.187479E-3,-6.5539515E-1,-1.34362755E-2,-1.923891E-2,-7.7111684E-2],"categories":[],"categories_nodes":[],"categories_segments":[],"categories_sizes":[],"default_left":[0,0,0,0,0,0,0,0,0,0,0,0,0,0,0,0,0,0,0,0,0,0,0,0,0,0,0,0,0,0,0,0,0,0,0,0,0,0,0,0,0,0,0,0,0,0,0],"id":27,"left_children":[1,3,5,7,-1,-1,-1,9,-1,11,13,15,17,-1,-1,19,21,23,-1,25,-1,-1,27,29,-1,31,33,-1,-1,35,37,39,-1,-1,41,43,-1,-1,-1,-1,-1,-1,-1,45,-1,-1,-1],"loss_changes":[8.919049E-1,1.1033045E0,7.58748E-1,1.2410096E0,0E0,0E0,0E0,1.1631985E0,0E0,7.3702824E-1,1.9790995E-1,1.239054E0,8.057825E-1,0E0,0E0,7.415982E-1,4.7865188E-1,7.102406E-1,0E0,1.1406561E0,0E0,0E0,2.7838397E-1,7.349163E-1,0E0,4.785187E-1,7.58851E-1,0E0,0E0,6.1172962E-2,2.1505532E-1,1.1441344E-1,0E0,0E0,4.1480374E-1,1.20788574E-1,0E0,0E0,0E0,0E0,0E0,0E0,0E0,1.3123918E-1,0E0,0E0,0E0],"parents":[2147483647,0,0,1,1,2,2,3,3,7,7,9,9,10,10,11,11,12,12,15,15,16,16,17,17,19,19,22,22,23,23,25,25,26,26,29,29,30,30,31,31,34,34,35,35,43,43],"right_children":[2,4,6,8,-1,-1,-1,10,-1,12,14,16,18,-1,-1,20,22,24,-1,26,-1,-1,28,30,-1,32,34,-1,-1,36,38,40,-1,-1,42,44,-1,-1,-1,-1,-1,-1,-1,46,-1,-1,-1],"split_conditions":[1.076855E0,2.2582715E0,-3.2147753E-1,1.9313561E0,7.8906424E-2,1.1860564E-2,-7.1487516E-2,5.894913E0,-6.710229E-2,-4.766576E-1,-5.704867E-1,9.558452E-9,3.608346E-1,8.282321E-2,1.5375135E-2,2.4413574E0,-5.6758696E-1,1.5063311E0,3.363029E-2,2.87792E-1,-5.7134986E-2,5.940746E-3,2.87792E-1,9.6308637E-1,2.9297883E-2,-1.9869522E-9,-1.9703914E-1,1.0345151E-1,1.7465072E-2,1.9174075E0,2.7703998E0,-3.5670555E-1,1.263611E-2,-1.2146925E-2,5.180079E-1,3.7436587E-1,-1.3307542E-2,2.889995E-2,-1.698636E-2,-1.1055093E-2,-6.167374E-2,7.8739874E-2,8.187479E-3,-1.9703914E-1,-1.34362755E-2,-1.923891E-2,-7.7111684E-2],"split_indices":[2,0,1,10,0,0,0,29,0,8,8,11,6,0,0,4,0,1,0,1,0,0,1,0,0,3,3,0,0,8,8,2,0,0,3,0,0,0,0,0,0,0,0,3,0,0,0],"split_type":[0,0,0,0,0,0,0,0,0,0,0,0,0,0,0,0,0,0,0,0,0,0,0,0,0,0,0,0,0,0,0,0,0,0,0,0,0,0,0,0,0,0,0,0,0,0,0],"sum_hessian":[3.3746902E1,3.0512764E1,3.2341373E0,2.9511835E1,1.0009288E0,1.3630525E0,1.8710847E0,2.8111578E1,1.4002573E0,2.5703938E1,2.4076395E0,1.4316272E1,1.1387667E1,1.1590059E0,1.2486336E0,1.0729827E1,3.5864453E0,9.71768E0,1.6699866E0,9.61854E0,1.1112868E0,1.4223022E0,2.1641428E0,8.633637E0,1.0840423E0,4.119859E0,5.4986806E0,1.1126984E0,1.0514445E0,6.433868E0,2.1997695E0,2.6491323E0,1.470727E0,1.923891E0,3.5747895E0,5.3711953E0,1.0626725E0,1.163706E0,1.0360637E0,1.1894162E0,1.4597161E0,2.0809302E0,1.4938593E0,4.2182636E0,1.1529316E0,1.3758718E0,2.842392E0],"tree_param":{"num_deleted":"0","num_feature":"30","num_nodes":"47","size_leaf_vector":"1"}},{"base_weights":[1.336345E-2,6.76944E-2,-4.0101323E-1,-1.3797773E-1,2.2065781E-1,-7.012043E-2,1.1338393E-2,-2.8583416E-1,1.759517E-1,3.0055654E-1,-5.6274172E-2,-4.1356793E-1,4.2352393E-2,4.0771133E-1,-2.7128449E-2,4.0193352E-1,-1.5327509E-1,-5.4438365E-1,1.3753322E-2,5.9041508E-2,7.847945E-3,2.594076E-1,8.626821E-2,-4.126864E-2,2.1856997E-2,-8.046922E-3,-7.125201E-1,-1.3374157E-1,3.7697193E-1,-8.213596E-2,-1.3492972E-2,-6.1618436E-2,4.7670234E-2,6.21768E-1,5.3881127E-2,8.6359173E-1,-2.0267239E-2,-3.6440797E-2,2.8366244E-1,9.8500736E-2,2.8901998E-2,5.0053734E-2,-2.6296538E-3],"categories":[],"categories_nodes":[],"categories_segments":[],"categories_sizes":[],"default_left":[0,0,0,0,0,0,0,0,0,0,0,0,0,0,0,0,0,0,0,0,0,0,0,0,0,0,0,0,0,0,0,0,0,0,0,0,0,0,0,0,0,0,0],"id":28,"left_children":[1,3,5,7,9,-1,-1,11,13,15,-1,17,-1,19,-1,21,23,25,-1,-1,-1,27,-1,-1,-1,-1,29,31,33,-1,-1,-1,-1,35,37,39,-1,-1,41,-1,-1,-1,-1],"loss_changes":[8.024003E-1,1.0151246E0,7.181796E-1,6.9848967E-1,1.3167266E0,0E0,0E0,1.0698757E0,6.382196E-1,8.5705316E-1,0E0,7.145988E-1,0E0,1.793766E-1,0E0,7.223971E-1,4.6454865E-1,5.177717E-1,0E0,0E0,0E0,6.251388E-1,0E0,0E0,0E0,0E0,2.2137618E-1,1.3540934E0,7.4427676E-1,0E0,0E0,0E0,0E0,1.2715538E0,6.160404E-1,2.5244236E-2,0E0,0E0,2.823893E-1,0E0,0E0,0E0,0E0],"parents":[2147483647,0,0,1,1,2,2,3,3,4,4,7,7,8,8,9,9,11,11,13,13,15,15,16,16,17,17,21,21,26,26,27,27,28,28,33,33,34,34,35,35,38,38],"right_children":[2,4,6,8,10,-1,-1,12,14,16,-1,18,-1,20,-1,22,24,26,-1,-1,-1,28,-1,-1,-1,-1,30,32,34,-1,-1,-1,-1,36,38,40,-1,-1,42,-1,-1,-1,-1],"split_conditions":[1.076855E0,1.684558E-3,2.1520252E0,8.9706147E-1,4.369146E-9,-7.012043E-2,1.1338393E-2,6.8555427E-1,2.5662178E-1,8.9706147E-1,-5.6274172E-2,-8.20396E-3,4.2352393E-2,1.6112086E-8,-2.7128449E-2,5.894913E0,3.6007467E-1,-1.9703914E-1,1.3753322E-2,5.9041508E-2,7.847945E-3,-1.9703914E-1,8.626821E-2,-4.126864E-2,2.1856997E-2,-8.046922E-3,7.275982E-1,9.558452E-9,3.6007467E-1,-8.213596E-2,-1.3492972E-2,-6.1618436E-2,4.7670234E-2,2.2017384E0,2.1133557E-2,4.9210995E-1,-2.0267239E-2,-3.6440797E-2,8.453423E-1,9.8500736E-2,2.8901998E-2,5.0053734E-2,-2.6296538E-3],"split_indices":[2,2,2,1,17,0,0,5,0,1,0,10,0,7,0,29,2,3,0,0,0,3,0,0,0,0,0,11,2,0,0,0,0,8,0,0,0,0,0,0,0,0,0],"split_type":[0,0,0,0,0,0,0,0,0,0,0,0,0,0,0,0,0,0,0,0,0,0,0,0,0,0,0,0,0,0,0,0,0,0,0,0,0,0,0,0,0,0,0],"sum_hessian":[3.34351E1,3.0299076E1,3.1360245E0,1.2964793E1,1.7334284E1,1.7510133E0,1.3850111E0,8.874516E0,4.090278E0,1.6289286E1,1.0449971E0,7.873687E0,1.000828E0,2.7523665E0,1.3379117E0,1.3408458E1,2.8808281E0,6.373087E0,1.5006002E0,1.2598921E0,1.4924744E0,1.1434403E1,1.9740546E0,1.6322694E0,1.2485588E0,2.0886831E0,4.284404E0,2.6004806E0,8.833923E0,3.2499483E0,1.0344554E0,1.4472746E0,1.153206E0,4.4999843E0,4.333939E0,3.4426906E0,1.0572934E0,1.3289167E0,3.0050223E0,2.252393E0,1.1902975E0,1.4062406E0,1.5987817E0],"tree_param":{"num_deleted":"0","num_feature":"30","num_nodes":"43","size_leaf_vector":"1"}},{"base_weights":[1.2604145E-2,-2.599923E-2,5.8354195E-2,3.9045166E-2,-5.7168156E-1,-7.982031E-3,5.4347564E-2,-1.7383592E-2,-6.722852E-2,-5.3032972E-2,4.678801E-2,1.588116E-1,-1.7070687E-1,-1.9781512E-1,6.2334996E-1,-4.4062826E-1,-2.7538206E-2,-4.14924E-1,1.6039866E-1,5.4402146E-3,8.911996E-2,-6.688215E-1,2.8625563E-2,-4.1046035E-1,1.3515684E-1,-1.6696785E-2,-5.8000293E-2,-1.2189652E-2,3.8302045E-2,-7.9521164E-2,-1.7448375E-2,-9.566552E-3,-6.2908754E-2,2.6130575E-1,-2.9594073E-2,4.5532548E-1,3.6952764E-2,9.321391E-3,6.1272006E-2,-3.6508292E-2,3.4517877E-2],"categories":[],"categories_nodes":[],"categories_segments":[],"categories_sizes":[],"default_left":[0,0,0,0,0,0,0,0,0,0,0,0,0,0,0,0,0,0,0,0,0,0,0,0,0,0,0,0,0,0,0,0,0,0,0,0,0,0,0,0,0],"id":29,"left_children":[1,3,-1,5,7,9,-1,-1,-1,11,-1,13,15,17,19,21,23,25,27,-1,-1,29,-1,31,33,-1,-1,-1,-1,-1,-1,-1,-1,35,-1,37,39,-1,-1,-1,-1],"loss_changes":[7.693954E-1,1.1939851E0,0E0,7.2621864E-1,2.6407838E-2,6.426863E-1,0E0,0E0,0E0,7.0583916E-1,0E0,1.819906E0,6.829188E-1,5.761517E-1,6.6601026E-1,1.2143563E0,8.540959E-1,8.156586E-2,2.4741086E-1,0E0,0E0,1.732192E-1,0E0,2.1993738E-1,6.0749865E-1,0E0,0E0,0E0,0E0,0E0,0E0,0E0,0E0,3.3458346E-1,0E0,1.8458998E-1,7.2481084E-1,0E0,0E0,0E0,0E0],"parents":[2147483647,0,0,1,1,3,3,4,4,5,5,9,9,11,11,12,12,13,13,14,14,15,15,16,16,17,17,18,18,21,21,23,23,24,24,33,33,35,35,36,36],"right_children":[2,4,-1,6,8,10,-1,-1,-1,12,-1,14,16,18,20,22,24,26,28,-1,-1,30,-1,32,34,-1,-1,-1,-1,-1,-1,-1,-1,36,-1,38,40,-1,-1,-1,-1],"split_conditions":[2.2582715E0,1.4340628E0,5.8354195E-2,6.8313003E0,5.180079E-1,6.821087E0,5.4347564E-2,-1.7383592E-2,-6.722852E-2,-4.4984284E-1,4.678801E-2,-6.8533105E-1,1.684558E-3,-1.9703914E-1,2.87792E-1,1.5063311E0,2.1133557E-2,-4.334133E-8,-3.5670555E-1,5.4402146E-3,8.911996E-2,-8.20396E-3,2.8625563E-2,-1.9869522E-9,1.076855E0,-1.6696785E-2,-5.8000293E-2,-1.2189652E-2,3.8302045E-2,-7.9521164E-2,-1.7448375E-2,-9.566552E-3,-6.2908754E-2,4.9210995E-1,-2.9594073E-2,5.180079E-1,9.6308637E-1,9.321391E-3,6.1272006E-2,-3.6508292E-2,3.4517877E-2],"split_indices":[0,0,0,28,3,22,0,0,0,0,0,0,2,3,1,1,0,1,2,0,0,10,0,3,2,0,0,0,0,0,0,0,0,0,0,3,0,0,0,0,0],"split_type":[0,0,0,0,0,0,0,0,0,0,0,0,0,0,0,0,0,0,0,0,0,0,0,0,0,0,0,0,0,0,0,0,0,0,0,0,0,0,0,0,0],"sum_hessian":[3.322048E1,3.2010582E1,1.2099005E0,2.9430916E1,2.5796673E0,2.7821354E1,1.6095616E0,1.0712491E0,1.5084182E0,2.6226944E1,1.5944101E0,9.241026E0,1.6985918E1,5.552519E0,3.6885076E0,5.1668916E0,1.1819026E1,3.3585997E0,2.193919E0,1.5657521E0,2.1227555E0,3.9931774E0,1.1737142E0,3.0701594E0,8.748867E0,2.1462603E0,1.2123394E0,1.1668044E0,1.0271145E0,2.6953917E0,1.2977859E0,1.8475296E0,1.2226297E0,7.073005E0,1.6758617E0,3.2408354E0,3.8321695E0,1.4642723E0,1.7765632E0,1.5829622E0,2.2492075E0],"tree_param":{"num_deleted":"0","num_feature":"30","num_nodes":"41","size_leaf_vector":"1"}},{"base_weights":[1.1245066E-2,-2.5491409E-2,5.4281563E-2,2.5327034E-2,-6.7026965E-2,6.977208E-2,-5.8469195E-2,9.894915E-3,5.3170323E-1,-1.6166255E-1,1.3201556E-1,7.152798E-2,1.2298134E-2,-6.999292E-2,-2.7879877E-3,2.5484366E-2,7.774805E-2,1.4370787E-1,-5.7777334E-2,-6.1161052E-2,1.3337238E-1,2.4933748E-1,-2.5338555E-2,6.0415846E-1,-3.5914056E-2,-3.9209064E-2,6.9422655E-2,1.0987314E-1,-1.9677611E-2,2.1610373E-1,-5.830525E-1,-3.5719644E-2,2.2100632E-1,4.774842E-1,-2.8569904E-1,-6.83391E-2,-1.5189755E-2,4.9846403E-2,-1.1176883E-2,7.249542E-1,-5.0984607E-3,2.119795E-2,-6.265586E-2,2.1992734E-2,8.537548E-2],"categories":[],"categories_nodes":[],"categories_segments":[],"categories_sizes":[],"default_left":[0,0,0,0,0,0,0,0,0,0,0,0,0,0,0,0,0,0,0,0,0,0,0,0,0,0,0,0,0,0,0,0,0,0,0,0,0,0,0,0,0,0,0,0,0],"id":30,"left_children":[1,3,-1,5,-1,7,-1,9,11,13,15,-1,-1,-1,17,19,-1,21,-1,-1,23,25,-1,27,29,31,-1,-1,-1,33,35,-1,37,39,41,-1,-1,-1,-1,43,-1,-1,-1,-1,-1],"loss_changes":[6.781322E-1,1.0908598E0,0E0,8.9057475E-1,0E0,8.274946E-1,0E0,6.010882E-1,1.698345E-1,1.0205212E0,1.1295826E0,0E0,0E0,0E0,9.452048E-1,1.1388128E0,0E0,4.389237E-1,0E0,0E0,1.1354625E0,1.0002583E0,0E0,1.7025216E0,1.6734803E0,5.377121E-1,0E0,0E0,0E0,1.2398965E0,6.1001062E-2,0E0,3.9428493E-1,8.093623E-1,7.2774684E-1,0E0,0E0,0E0,0E0,7.816291E-2,0E0,0E0,0E0,0E0,0E0],"parents":[2147483647,0,0,1,1,3,3,5,5,7,7,8,8,9,9,10,10,14,14,15,15,17,17,20,20,21,21,23,23,24,24,25,25,29,29,30,30,32,32,33,33,34,34,39,39],"right_children":[2,4,-1,6,-1,8,-1,10,12,14,16,-1,-1,-1,18,20,-1,22,-1,-1,24,26,-1,28,30,32,-1,-1,-1,34,36,-1,38,40,42,-1,-1,-1,-1,44,-1,-1,-1,-1,-1],"split_conditions":[2.2582715E0,1.9313561E0,5.4281563E-2,1.9481019E0,-6.7026965E-2,5.894913E0,-5.8469195E-2,7.998648E-1,-5.704867E-1,-3.2147753E-1,-1.0241116E-1,7.152798E-2,1.2298134E-2,-6.999292E-2,9.214334E-9,-8.0307513E-1,7.774805E-2,8.453423E-1,-5.7777334E-2,-6.1161052E-2,-3.2147753E-1,-1.9869522E-9,-2.5338555E-2,-3.5723865E-1,3.6007467E-1,-6.8533105E-1,6.9422655E-2,1.0987314E-1,-1.9677611E-2,3.7436587E-1,1.0644152E0,-3.5719644E-2,-4.4984284E-1,5.180079E-1,-4.334133E-8,-6.83391E-2,-1.5189755E-2,4.9846403E-2,-1.1176883E-2,-1.9703914E-1,-5.0984607E-3,2.119795E-2,-6.265586E-2,2.1992734E-2,8.537548E-2],"split_indices":[0,10,0,3,0,29,0,7,8,1,10,0,0,0,9,0,0,0,0,0,1,3,0,8,2,0,0,0,0,0,8,0,0,3,1,0,0,0,0,3,0,0,0,0,0],"split_type":[0,0,0,0,0,0,0,0,0,0,0,0,0,0,0,0,0,0,0,0,0,0,0,0,0,0,0,0,0,0,0,0,0,0,0,0,0,0,0,0,0,0,0,0,0],"sum_hessian":[3.3017517E1,3.1773705E1,1.2438138E0,3.0342934E1,1.43077E0,2.9107807E1,1.2351269E0,2.6671919E1,2.435888E0,1.0956383E1,1.5715535E1,1.1633377E0,1.2725505E0,1.720793E0,9.23559E0,1.4381426E1,1.3341095E0,7.9580817E0,1.2775083E0,1.4065573E0,1.2974869E1,6.579881E0,1.3782005E0,2.7521842E0,1.0222685E1,4.5443625E0,2.0355191E0,1.4716414E0,1.2805427E0,7.4131417E0,2.8095427E0,1.8774242E0,2.666938E0,4.9061007E0,2.5070415E0,1.8045607E0,1.0049819E0,1.1828302E0,1.4841079E0,3.088176E0,1.8179245E0,1.1727899E0,1.3342514E0,1.1777445E0,1.9104315E0],"tree_param":{"num_deleted":"0","num_feature":"30","num_nodes":"45","size_leaf_vector":"1"}},{"base_weights":[9.694E-3,-3.5134558E-2,7.3485725E-2,3.472018E-2,-5.9533614E-1,-1.0619968E-2,5.1189113E-2,-1.7876476E-2,-6.944744E-2,1.1542339E-1,-2.843517E-1,-1.6483001E-2,3.910133E-1,-4.7208875E-2,-7.432607E-2,-5.293153E-2,1.2523751E-1,1.1251284E-1,-5.4851223E-2,1.6973503E-1,-5.8599573E-2,-9.970179E-2,2.8088084E-1,-5.623377E-2,2.2659232E-1,-1.1855609E-1,4.734097E-2,-2.9331255E-1,1.9200975E-2,-1.7979786E-2,4.5533916E-1,5.792849E-2,-1.6415097E-2,3.315403E-2,-4.099245E-2,1.2687343E-2,-6.1680563E-2,7.580646E-2,1.802019E-1,-6.5781765E-2,7.095537E-2],"categories":[],"categories_nodes":[],"categories_segments":[],"categories_sizes":[],"default_left":[0,0,0,0,0,0,0,0,0,0,0,0,0,0,0,0,0,0,0,0,0,0,0,0,0,0,0,0,0,0,0,0,0,0,0,0,0,0,0,0,0],"id":31,"left_children":[1,3,-1,5,7,9,-1,-1,-1,11,13,15,17,19,-1,-1,21,-1,23,25,-1,27,29,-1,31,33,-1,35,-1,-1,37,-1,-1,-1,-1,-1,-1,-1,39,-1,-1],"loss_changes":[1.1216562E0,1.3003714E0,0E0,6.549365E-1,2.786076E-2,1.0125232E0,0E0,0E0,0E0,7.390871E-1,9.706255E-1,1.1266568E0,2.2103186E0,9.364544E-1,0E0,0E0,4.5651358E-1,0E0,8.469143E-1,5.7094604E-1,0E0,3.8070363E-1,6.843174E-1,0E0,6.3988566E-1,6.364033E-1,0E0,6.0128695E-1,0E0,0E0,3.398286E-1,0E0,0E0,0E0,0E0,0E0,0E0,0E0,2.3780107E0,0E0,0E0],"parents":[2147483647,0,0,1,1,3,3,4,4,5,5,9,9,10,10,11,11,12,12,13,13,16,16,18,18,19,19,21,21,22,22,24,24,25,25,27,27,30,30,38,38],"right_children":[2,4,-1,6,8,10,-1,-1,-1,12,14,16,18,20,-1,-1,22,-1,24,26,-1,28,30,-1,32,34,-1,36,-1,-1,38,-1,-1,-1,-1,-1,-1,-1,40,-1,-1],"split_conditions":[2.3760157E0,1.4340628E0,7.3485725E-2,1.1985745E0,1.669551E0,-2.1507326E-1,5.1189113E-2,-1.7876476E-2,-6.944744E-2,-5.477402E-1,4.9210995E-1,-3.2147753E-1,-3.2147753E-1,9.214334E-9,-7.432607E-2,-5.293153E-2,1.684558E-3,1.1251284E-1,-5.6758696E-1,1.3887766E-1,-5.8599573E-2,8.9706147E-1,-1.9703914E-1,-5.623377E-2,2.2945171E-7,-4.4984284E-1,4.734097E-2,2.87792E-1,1.9200975E-2,-1.7979786E-2,-9.6610546E-2,5.792849E-2,-1.6415097E-2,3.315403E-2,-4.099245E-2,1.2687343E-2,-6.1680563E-2,7.580646E-2,3.6007467E-1,-6.5781765E-2,7.095537E-2],"split_indices":[0,0,0,0,0,8,0,0,0,8,0,1,1,9,0,0,2,0,0,0,0,1,3,0,2,0,0,1,0,0,0,0,0,0,0,0,0,0,2,0,0],"split_type":[0,0,0,0,0,0,0,0,0,0,0,0,0,0,0,0,0,0,0,0,0,0,0,0,0,0,0,0,0,0,0,0,0,0,0,0,0,0,0,0,0],"sum_hessian":[3.270975E1,3.1701555E1,1.0081955E0,2.9020807E1,2.6807482E0,2.739547E1,1.6253369E0,1.0542129E0,1.6265353E0,1.9154064E1,8.2414055E0,1.3589752E1,5.564312E0,6.160709E0,2.0806963E0,2.3502336E0,1.1239519E1,1.5268615E0,4.0374503E0,4.8805223E0,1.2801865E0,4.7435102E0,6.496009E0,1.0842791E0,2.9531715E0,2.8163953E0,2.064127E0,2.8478718E0,1.8956382E0,1.7759056E0,4.7201033E0,1.2985522E0,1.6546193E0,1.0525607E0,1.7638347E0,1.5031841E0,1.3446877E0,1.4116659E0,3.3084376E0,1.1868477E0,2.12159E0],"tree_param":{"num_deleted":"0","num_feature":"30","num_nodes":"41","size_leaf_vector":"1"}},{"base_weights":[8.455557E-3,-3.444229E-2,6.873697E-2,3.1650737E-2,-5.7600725E-1,-1.1157086E-2,4.744857E-2,-1.6426478E-2,-6.80302E-2,5.350611E-2,-5.080091E-1,-8.414249E-2,1.6586961E-1,-1.4701973E-2,-6.2210705E-2,-6.702506E-2,6.42799E-2,6.8099475E-1,-6.298503E-2,2.269475E-1,-6.0312252E-2,2.1427875E-2,9.323483E-2,1.3898252E-1,-5.0233525E-1,2.6557185E-2,4.584051E-1,-3.4772355E-2,3.1971917E-1,-1.074108E-2,-6.406119E-2,2.7207023E-1,-5.9181094E-2,6.71697E-2,4.608694E-3,7.071137E-1,-1.14563E-1,-9.059719E-3,5.6010526E-2,1.1086295E-1,-1.0895937E-2,-6.339122E-2,3.533725E-2],"categories":[],"categories_nodes":[],"categories_segments":[],"categories_sizes":[],"default_left":[0,0,0,0,0,0,0,0,0,0,0,0,0,0,0,0,0,0,0,0,0,0,0,0,0,0,0,0,0,0,0,0,0,0,0,0,0,0,0,0,0,0,0],"id":32,"left_children":[1,3,-1,5,7,9,-1,-1,-1,11,13,15,17,-1,-1,-1,19,21,23,25,-1,-1,-1,27,29,31,33,-1,35,-1,-1,37,-1,-1,-1,39,41,-1,-1,-1,-1,-1,-1],"loss_changes":[9.9880075E-1,1.1795336E0,0E0,5.714084E-1,4.2025805E-2,9.3345135E-1,0E0,0E0,0E0,4.1399273E-1,4.625815E-2,1.1120126E0,1.761316E0,0E0,0E0,0E0,1.3003992E0,3.36159E-1,1.0466126E0,4.2120185E-1,0E0,0E0,0E0,8.4345603E-1,1.323399E-1,1.0824568E0,3.449372E-1,0E0,1.1899353E0,0E0,0E0,5.7613647E-1,0E0,0E0,0E0,1.3079907E0,1.1883683E0,0E0,0E0,0E0,0E0,0E0,0E0],"parents":[2147483647,0,0,1,1,3,3,4,4,5,5,9,9,10,10,11,11,12,12,16,16,17,17,18,18,19,19,23,23,24,24,25,25,26,26,28,28,31,31,35,35,36,36],"right_children":[2,4,-1,6,8,10,-1,-1,-1,12,14,16,18,-1,-1,-1,20,22,24,26,-1,-1,-1,28,30,32,34,-1,36,-1,-1,38,-1,-1,-1,40,42,-1,-1,-1,-1,-1,-1],"split_conditions":[2.3760157E0,1.4340628E0,6.873697E-2,1.1985745E0,5.180079E-1,1.2065806E0,4.744857E-2,-1.6426478E-2,-6.80302E-2,7.998648E-1,3.7436587E-1,-3.2147753E-1,-3.2147753E-1,-1.4701973E-2,-6.2210705E-2,-6.702506E-2,9.214334E-9,3.6007467E-1,3.6007467E-1,1.3887766E-1,-6.0312252E-2,2.1427875E-2,9.323483E-2,-5.6758696E-1,-4.766576E-1,-2.1435463E-1,4.9210995E-1,-3.4772355E-2,5.180079E-1,-1.074108E-2,-6.406119E-2,-6.8533105E-1,-5.9181094E-2,6.71697E-2,4.608694E-3,-9.6610546E-2,1.3887766E-1,-9.059719E-3,5.6010526E-2,1.1086295E-1,-1.0895937E-2,-6.339122E-2,3.533725E-2],"split_indices":[0,0,0,0,3,8,0,0,0,7,0,1,1,0,0,0,9,2,2,0,0,0,0,0,8,0,0,0,3,0,0,0,0,0,0,0,0,0,0,0,0,0,0],"split_type":[0,0,0,0,0,0,0,0,0,0,0,0,0,0,0,0,0,0,0,0,0,0,0,0,0,0,0,0,0,0,0,0,0,0,0,0,0,0,0,0,0,0,0],"sum_hessian":[3.248193E1,3.1444357E1,1.0375735E0,2.8863401E1,2.580956E0,2.7208067E1,1.655335E0,1.042056E0,1.5389E0,2.4864382E1,2.3436852E0,1.1287733E1,1.3576649E1,1.1124848E0,1.2312002E0,1.5704237E0,9.717309E0,3.568563E0,1.0008085E1,8.343646E0,1.3736631E0,1.8975922E0,1.6709709E0,7.3246403E0,2.683445E0,5.069412E0,3.274234E0,1.7332485E0,5.591392E0,1.1566842E0,1.5267608E0,4.02956E0,1.0398525E0,1.7433339E0,1.5309E0,2.6231854E0,2.9682064E0,2.0871172E0,1.9424427E0,1.5178806E0,1.105305E0,1.238703E0,1.7295035E0],"tree_param":{"num_deleted":"0","num_feature":"30","num_nodes":"43","size_leaf_vector":"1"}},{"base_weights":[5.7004862E-3,-3.5394512E-2,6.434024E-2,2.7112575E-2,-5.5718523E-1,-1.4843935E-2,4.669865E-2,-1.5370677E-2,-6.603395E-2,-5.2786637E-2,4.847459E-2,-8.213127E-2,2.875478E-2,9.3251106E-4,-2.2327298E-1,-1.3151519E-1,6.025349E-1,-7.415046E-2,2.697769E-2,-2.1589376E-1,3.801289E-2,1.9986045E-2,7.3168166E-2,-2.6735688E-2,2.2995257E-1,7.134222E-2,-3.863696E-1,4.1282848E-1,-8.032185E-3,-6.352843E-2,4.5595294E-1,-1.819708E-1,-6.999533E-2,7.422864E-2,-1.2529734E-2,-1.7019505E-2,7.891448E-2,1.312338E-2,-5.9472173E-2,2.4695642E-1,-2.5239843E-1,5.0036725E-2,-1.5361589E-2,1.798389E-2,-5.6155574E-2],"categories":[],"categories_nodes":[],"categories_segments":[],"categories_sizes":[],"default_left":[0,0,0,0,0,0,0,0,0,0,0,0,0,0,0,0,0,0,0,0,0,0,0,0,0,0,0,0,0,0,0,0,0,0,0,0,0,0,0,0,0,0,0,0,0],"id":33,"left_children":[1,3,-1,5,7,9,-1,-1,-1,11,-1,13,-1,15,17,19,21,-1,23,25,-1,-1,-1,-1,27,29,31,33,-1,-1,35,37,-1,-1,-1,-1,-1,39,-1,41,43,-1,-1,-1,-1],